<?xml version="1.0"?>
<opencv_storage>
<cascade>
  <stageType>BOOST</stageType>
  <featureType>HOG</featureType>
  <height>20</height>
  <width>20</width>
  <stageParams>
    <boostType>GAB</boostType>
    <minHitRate>9.9900001287460327e-001</minHitRate>
    <maxFalseAlarm>5.0000000000000000e-001</maxFalseAlarm>
    <weightTrimRate>9.4999999999999996e-001</weightTrimRate>
    <maxDepth>1</maxDepth>
    <maxWeakCount>300</maxWeakCount></stageParams>
  <featureParams>
    <maxCatCount>0</maxCatCount>
    <featSize>36</featSize></featureParams>
  <stageNum>20</stageNum>
  <stages>
    <!-- stage 0 -->
    <_>
      <maxWeakCount>12</maxWeakCount>
      <stageThreshold>-2.0423102378845215e+000</stageThreshold>
      <weakClassifiers>
        <_>
          <internalNodes>
            0 -1 33 6.1562806367874146e-002</internalNodes>
          <leafValues>
            -6.3443148136138916e-001 6.1006289720535278e-001</leafValues></_>
        <_>
          <internalNodes>
            0 -1 91 5.6257359683513641e-002</internalNodes>
          <leafValues>
            -3.7816330790519714e-001 8.2865327596664429e-001</leafValues></_>
        <_>
          <internalNodes>
            0 -1 58 4.3305557221174240e-002</internalNodes>
          <leafValues>
            3.3587688207626343e-001 -6.3051271438598633e-001</leafValues></_>
        <_>
          <internalNodes>
            0 -1 141 3.6544024944305420e-002</internalNodes>
          <leafValues>
            -2.7510240674018860e-001 5.4922932386398315e-001</leafValues></_>
        <_>
          <internalNodes>
            0 -1 118 3.8920998573303223e-002</internalNodes>
          <leafValues>
            -2.1667796373367310e-001 6.7585593461990356e-001</leafValues></_>
        <_>
          <internalNodes>
            0 -1 13 3.5752452909946442e-002</internalNodes>
          <leafValues>
            2.6305434107780457e-001 -4.9731889367103577e-001</leafValues></_>
        <_>
          <internalNodes>
            0 -1 138 6.8680457770824432e-003</internalNodes>
          <leafValues>
            -4.9207869172096252e-001 2.6766642928123474e-001</leafValues></_>
        <_>
          <internalNodes>
            0 -1 120 1.2293593317735940e-004</internalNodes>
          <leafValues>
            -9.0343546867370605e-001 1.2052112817764282e-001</leafValues></_>
        <_>
          <internalNodes>
            0 -1 6 6.5776988863945007e-002</internalNodes>
          <leafValues>
            -1.5685807168483734e-001 8.5335987806320190e-001</leafValues></_>
        <_>
          <internalNodes>
            0 -1 39 1.2598307512234896e-004</internalNodes>
          <leafValues>
            -7.7803182601928711e-001 1.2469632178544998e-001</leafValues></_>
        <_>
          <internalNodes>
            0 -1 57 1.4624238247051835e-004</internalNodes>
          <leafValues>
            -7.3812836408615112e-001 8.2964763045310974e-002</leafValues></_>
        <_>
          <internalNodes>
            0 -1 139 4.9751147627830505e-002</internalNodes>
          <leafValues>
            1.5090587735176086e-001 -4.3917092680931091e-001</leafValues></_></weakClassifiers></_>
    <!-- stage 1 -->
    <_>
      <maxWeakCount>42</maxWeakCount>
      <stageThreshold>-2.0917670726776123e+000</stageThreshold>
      <weakClassifiers>
        <_>
          <internalNodes>
            0 -1 33 6.2003616243600845e-002</internalNodes>
          <leafValues>
            -6.2065935134887695e-001 3.4105262160301208e-001</leafValues></_>
        <_>
          <internalNodes>
            0 -1 91 6.4609639346599579e-002</internalNodes>
          <leafValues>
            -3.2831096649169922e-001 7.4117124080657959e-001</leafValues></_>
        <_>
          <internalNodes>
            0 -1 32 6.1977427452802658e-002</internalNodes>
          <leafValues>
            -1.2482562661170959e-001 6.1191600561141968e-001</leafValues></_>
        <_>
          <internalNodes>
            0 -1 22 2.5294132530689240e-002</internalNodes>
          <leafValues>
            2.9416295886039734e-001 -3.6269301176071167e-001</leafValues></_>
        <_>
          <internalNodes>
            0 -1 118 4.8515472561120987e-002</internalNodes>
          <leafValues>
            -1.4408904314041138e-001 5.1282107830047607e-001</leafValues></_>
        <_>
          <internalNodes>
            0 -1 141 3.3169168978929520e-002</internalNodes>
          <leafValues>
            -2.0781704783439636e-001 3.2199758291244507e-001</leafValues></_>
        <_>
          <internalNodes>
            0 -1 138 9.5005554612725973e-004</internalNodes>
          <leafValues>
            -6.9912594556808472e-001 8.1254348158836365e-002</leafValues></_>
        <_>
          <internalNodes>
            0 -1 109 7.6565109193325043e-002</internalNodes>
          <leafValues>
            -7.4647009372711182e-002 5.2907097339630127e-001</leafValues></_>
        <_>
          <internalNodes>
            0 -1 78 6.2416557222604752e-002</internalNodes>
          <leafValues>
            -8.6332440376281738e-002 4.7065830230712891e-001</leafValues></_>
        <_>
          <internalNodes>
            0 -1 87 3.6602277308702469e-002</internalNodes>
          <leafValues>
            8.0013602972030640e-002 -5.9160804748535156e-001</leafValues></_>
        <_>
          <internalNodes>
            0 -1 85 8.5921458899974823e-002</internalNodes>
          <leafValues>
            5.1710616797208786e-002 -7.9098045825958252e-001</leafValues></_>
        <_>
          <internalNodes>
            0 -1 3 9.7412921604700387e-005</internalNodes>
          <leafValues>
            -5.9467983245849609e-001 7.0623621344566345e-002</leafValues></_>
        <_>
          <internalNodes>
            0 -1 129 1.1073772475356236e-004</internalNodes>
          <leafValues>
            -5.8977466821670532e-001 5.0905410200357437e-002</leafValues></_>
        <_>
          <internalNodes>
            0 -1 143 1.3369612395763397e-002</internalNodes>
          <leafValues>
            -2.5590419769287109e-001 1.2811514735221863e-001</leafValues></_>
        <_>
          <internalNodes>
            0 -1 84 1.0711325739976019e-004</internalNodes>
          <leafValues>
            -5.9004068374633789e-001 4.3489445000886917e-002</leafValues></_>
        <_>
          <internalNodes>
            0 -1 8 4.5366555452346802e-002</internalNodes>
          <leafValues>
            -1.1456920206546783e-001 2.9379412531852722e-001</leafValues></_>
        <_>
          <internalNodes>
            0 -1 98 1.3424327597022057e-002</internalNodes>
          <leafValues>
            2.2166031599044800e-001 -1.7124417424201965e-001</leafValues></_>
        <_>
          <internalNodes>
            0 -1 134 5.7388958521187305e-003</internalNodes>
          <leafValues>
            -3.4834104776382446e-001 7.8376583755016327e-002</leafValues></_>
        <_>
          <internalNodes>
            0 -1 113 4.8666074872016907e-002</internalNodes>
          <leafValues>
            -9.0583607554435730e-002 3.6287829279899597e-001</leafValues></_>
        <_>
          <internalNodes>
            0 -1 76 5.8209551498293877e-003</internalNodes>
          <leafValues>
            3.0206847190856934e-001 -1.3645018637180328e-001</leafValues></_>
        <_>
          <internalNodes>
            0 -1 102 4.3833358213305473e-003</internalNodes>
          <leafValues>
            -3.9589345455169678e-001 9.3222714960575104e-002</leafValues></_>
        <_>
          <internalNodes>
            0 -1 117 6.5313354134559631e-002</internalNodes>
          <leafValues>
            -6.8426780402660370e-002 5.5452305078506470e-001</leafValues></_>
        <_>
          <internalNodes>
            0 -1 118 1.2471551308408380e-003</internalNodes>
          <leafValues>
            4.3771085143089294e-001 -5.0677277147769928e-002</leafValues></_>
        <_>
          <internalNodes>
            0 -1 55 4.2741261422634125e-002</internalNodes>
          <leafValues>
            -8.7828353047370911e-002 2.8238335251808167e-001</leafValues></_>
        <_>
          <internalNodes>
            0 -1 5 4.0049903094768524e-002</internalNodes>
          <leafValues>
            -7.6377585530281067e-002 3.2817023992538452e-001</leafValues></_>
        <_>
          <internalNodes>
            0 -1 67 9.6935182809829712e-003</internalNodes>
          <leafValues>
            -2.6019695401191711e-001 8.5464783012866974e-002</leafValues></_>
        <_>
          <internalNodes>
            0 -1 47 5.1540769636631012e-002</internalNodes>
          <leafValues>
            -7.9866468906402588e-002 3.3322802186012268e-001</leafValues></_>
        <_>
          <internalNodes>
            0 -1 7 6.5926313400268555e-002</internalNodes>
          <leafValues>
            -5.0566181540489197e-002 4.9740135669708252e-001</leafValues></_>
        <_>
          <internalNodes>
            0 -1 137 7.8334972262382507e-002</internalNodes>
          <leafValues>
            3.4271039068698883e-002 -8.6901593208312988e-001</leafValues></_>
        <_>
          <internalNodes>
            0 -1 3 9.7951320931315422e-003</internalNodes>
          <leafValues>
            -1.7529614269733429e-001 1.2132936716079712e-001</leafValues></_>
        <_>
          <internalNodes>
            0 -1 42 8.0930247902870178e-002</internalNodes>
          <leafValues>
            -5.7316698133945465e-002 4.4491291046142578e-001</leafValues></_>
        <_>
          <internalNodes>
            0 -1 114 6.6478867083787918e-003</internalNodes>
          <leafValues>
            2.1870878338813782e-001 -1.2643831968307495e-001</leafValues></_>
        <_>
          <internalNodes>
            0 -1 134 4.0520384907722473e-002</internalNodes>
          <leafValues>
            -1.0026761144399643e-001 2.4063186347484589e-001</leafValues></_>
        <_>
          <internalNodes>
            0 -1 44 1.3920444250106812e-001</internalNodes>
          <leafValues>
            2.2623844444751740e-002 -9.0502804517745972e-001</leafValues></_>
        <_>
          <internalNodes>
            0 -1 11 7.3963357135653496e-003</internalNodes>
          <leafValues>
            1.5559582412242889e-001 -1.3015423715114594e-001</leafValues></_>
        <_>
          <internalNodes>
            0 -1 84 4.8341033980250359e-003</internalNodes>
          <leafValues>
            -2.9685160517692566e-001 9.9855467677116394e-002</leafValues></_>
        <_>
          <internalNodes>
            0 -1 55 9.9986836314201355e-002</internalNodes>
          <leafValues>
            -5.4439548403024673e-002 4.6302154660224915e-001</leafValues></_>
        <_>
          <internalNodes>
            0 -1 14 8.9546042727306485e-004</internalNodes>
          <leafValues>
            -3.6802536249160767e-001 5.6902118027210236e-002</leafValues></_>
        <_>
          <internalNodes>
            0 -1 86 1.3014388270676136e-002</internalNodes>
          <leafValues>
            1.1193786561489105e-001 -1.9190230965614319e-001</leafValues></_>
        <_>
          <internalNodes>
            0 -1 117 1.8429385498166084e-002</internalNodes>
          <leafValues>
            -1.3522034883499146e-001 1.6158334910869598e-001</leafValues></_>
        <_>
          <internalNodes>
            0 -1 104 3.7620417773723602e-002</internalNodes>
          <leafValues>
            -1.0771480202674866e-001 2.5047186017036438e-001</leafValues></_>
        <_>
          <internalNodes>
            0 -1 141 4.1067097336053848e-003</internalNodes>
          <leafValues>
            2.6660740375518799e-001 -8.0621428787708282e-002</leafValues></_></weakClassifiers></_>
    <!-- stage 2 -->
    <_>
      <maxWeakCount>68</maxWeakCount>
      <stageThreshold>-1.8786936998367310e+000</stageThreshold>
      <weakClassifiers>
        <_>
          <internalNodes>
            0 -1 91 1.3210876286029816e-001</internalNodes>
          <leafValues>
            -5.2722287178039551e-001 4.8730963468551636e-001</leafValues></_>
        <_>
          <internalNodes>
            0 -1 69 5.2567042410373688e-002</internalNodes>
          <leafValues>
            -2.7921128273010254e-001 4.1779968142509460e-001</leafValues></_>
        <_>
          <internalNodes>
            0 -1 32 9.2625476419925690e-002</internalNodes>
          <leafValues>
            -8.0395385622978210e-002 5.4716652631759644e-001</leafValues></_>
        <_>
          <internalNodes>
            0 -1 112 1.2187727726995945e-002</internalNodes>
          <leafValues>
            2.5279721617698669e-001 -2.2223445773124695e-001</leafValues></_>
        <_>
          <internalNodes>
            0 -1 102 3.6413823254406452e-003</internalNodes>
          <leafValues>
            -4.8373821377754211e-001 9.6944719552993774e-002</leafValues></_>
        <_>
          <internalNodes>
            0 -1 19 6.2983453273773193e-002</internalNodes>
          <leafValues>
            -8.3699584007263184e-002 4.0532067418098450e-001</leafValues></_>
        <_>
          <internalNodes>
            0 -1 114 8.6526960134506226e-002</internalNodes>
          <leafValues>
            -9.3998633325099945e-002 4.0025651454925537e-001</leafValues></_>
        <_>
          <internalNodes>
            0 -1 62 3.3285960555076599e-002</internalNodes>
          <leafValues>
            -1.3919493556022644e-001 2.8934201598167419e-001</leafValues></_>
        <_>
          <internalNodes>
            0 -1 118 3.9269935339689255e-002</internalNodes>
          <leafValues>
            -1.3599501550197601e-001 2.8275215625762939e-001</leafValues></_>
        <_>
          <internalNodes>
            0 -1 68 1.4719377271831036e-002</internalNodes>
          <leafValues>
            -2.2523552179336548e-001 1.7255049943923950e-001</leafValues></_>
        <_>
          <internalNodes>
            0 -1 80 6.1568558216094971e-002</internalNodes>
          <leafValues>
            -5.8593835681676865e-002 3.9372619986534119e-001</leafValues></_>
        <_>
          <internalNodes>
            0 -1 3 2.3947501904331148e-004</internalNodes>
          <leafValues>
            -5.4983878135681152e-001 5.0967227667570114e-002</leafValues></_>
        <_>
          <internalNodes>
            0 -1 109 2.8251344338059425e-003</internalNodes>
          <leafValues>
            2.9933130741119385e-001 -9.3688994646072388e-002</leafValues></_>
        <_>
          <internalNodes>
            0 -1 109 8.0507501959800720e-002</internalNodes>
          <leafValues>
            -7.8734919428825378e-002 4.4399210810661316e-001</leafValues></_>
        <_>
          <internalNodes>
            0 -1 138 6.2136477790772915e-003</internalNodes>
          <leafValues>
            -2.8325641155242920e-001 9.4668582081794739e-002</leafValues></_>
        <_>
          <internalNodes>
            0 -1 106 1.9933249801397324e-002</internalNodes>
          <leafValues>
            -1.4345215260982513e-001 1.8400539457798004e-001</leafValues></_>
        <_>
          <internalNodes>
            0 -1 84 1.2053325772285461e-002</internalNodes>
          <leafValues>
            -1.9833613932132721e-001 1.5466603636741638e-001</leafValues></_>
        <_>
          <internalNodes>
            0 -1 81 5.0505261868238449e-002</internalNodes>
          <leafValues>
            -6.5619535744190216e-002 3.7724760174751282e-001</leafValues></_>
        <_>
          <internalNodes>
            0 -1 6 5.4866436868906021e-002</internalNodes>
          <leafValues>
            -9.2677451670169830e-002 3.4674960374832153e-001</leafValues></_>
        <_>
          <internalNodes>
            0 -1 115 1.0696511715650558e-002</internalNodes>
          <leafValues>
            1.8100261688232422e-001 -1.5935336053371429e-001</leafValues></_>
        <_>
          <internalNodes>
            0 -1 137 6.4457908272743225e-002</internalNodes>
          <leafValues>
            4.0803212672472000e-002 -7.1278792619705200e-001</leafValues></_>
        <_>
          <internalNodes>
            0 -1 60 5.8080613613128662e-002</internalNodes>
          <leafValues>
            2.9258800670504570e-002 -6.3705146312713623e-001</leafValues></_>
        <_>
          <internalNodes>
            0 -1 57 2.7512724045664072e-004</internalNodes>
          <leafValues>
            -5.5517059564590454e-001 3.5109587013721466e-002</leafValues></_>
        <_>
          <internalNodes>
            0 -1 58 2.5642134249210358e-002</internalNodes>
          <leafValues>
            1.1745953559875488e-001 -2.4072679877281189e-001</leafValues></_>
        <_>
          <internalNodes>
            0 -1 120 2.2224377607926726e-004</internalNodes>
          <leafValues>
            -6.7325204610824585e-001 2.8571601957082748e-002</leafValues></_>
        <_>
          <internalNodes>
            0 -1 113 4.5977711677551270e-002</internalNodes>
          <leafValues>
            -7.6768763363361359e-002 2.7980533242225647e-001</leafValues></_>
        <_>
          <internalNodes>
            0 -1 80 2.5802817195653915e-002</internalNodes>
          <leafValues>
            -1.4380596578121185e-001 1.7255240678787231e-001</leafValues></_>
        <_>
          <internalNodes>
            0 -1 127 7.0590034127235413e-002</internalNodes>
          <leafValues>
            -5.7405166327953339e-002 3.3206593990325928e-001</leafValues></_>
        <_>
          <internalNodes>
            0 -1 119 3.7442732136696577e-003</internalNodes>
          <leafValues>
            2.7223297953605652e-001 -9.7493954002857208e-002</leafValues></_>
        <_>
          <internalNodes>
            0 -1 87 8.0255508422851563e-002</internalNodes>
          <leafValues>
            3.1669232994318008e-002 -7.3721414804458618e-001</leafValues></_>
        <_>
          <internalNodes>
            0 -1 3 6.8429573439061642e-003</internalNodes>
          <leafValues>
            -1.7130826413631439e-001 9.5307685434818268e-002</leafValues></_>
        <_>
          <internalNodes>
            0 -1 105 6.3223809003829956e-002</internalNodes>
          <leafValues>
            -6.9343656301498413e-002 2.6228252053260803e-001</leafValues></_>
        <_>
          <internalNodes>
            0 -1 141 1.3186115026473999e-001</internalNodes>
          <leafValues>
            3.2922148704528809e-002 -5.9769678115844727e-001</leafValues></_>
        <_>
          <internalNodes>
            0 -1 96 1.2861528992652893e-001</internalNodes>
          <leafValues>
            -4.6119328588247299e-002 4.2011457681655884e-001</leafValues></_>
        <_>
          <internalNodes>
            0 -1 47 3.7645515054464340e-002</internalNodes>
          <leafValues>
            -8.4173716604709625e-002 2.4391305446624756e-001</leafValues></_>
        <_>
          <internalNodes>
            0 -1 2 5.8194212615489960e-002</internalNodes>
          <leafValues>
            3.7448015064001083e-002 -5.8546745777130127e-001</leafValues></_>
        <_>
          <internalNodes>
            0 -1 129 4.5622911304235458e-002</internalNodes>
          <leafValues>
            -6.2872469425201416e-002 3.2620602846145630e-001</leafValues></_>
        <_>
          <internalNodes>
            0 -1 25 5.3260624408721924e-002</internalNodes>
          <leafValues>
            -4.4080428779125214e-002 3.5374414920806885e-001</leafValues></_>
        <_>
          <internalNodes>
            0 -1 63 1.4819759235251695e-004</internalNodes>
          <leafValues>
            -6.5141314268112183e-001 2.6477016508579254e-002</leafValues></_>
        <_>
          <internalNodes>
            0 -1 65 1.1982940882444382e-001</internalNodes>
          <leafValues>
            1.0337586514651775e-002 -1.</leafValues></_>
        <_>
          <internalNodes>
            0 -1 26 1.6254585981369019e-001</internalNodes>
          <leafValues>
            1.0635223239660263e-002 -9.6515983343124390e-001</leafValues></_>
        <_>
          <internalNodes>
            0 -1 107 1.3994336128234863e-001</internalNodes>
          <leafValues>
            1.0234296321868896e-002 -8.3724009990692139e-001</leafValues></_>
        <_>
          <internalNodes>
            0 -1 125 3.9337746798992157e-002</internalNodes>
          <leafValues>
            -7.9156510531902313e-002 2.1587507426738739e-001</leafValues></_>
        <_>
          <internalNodes>
            0 -1 117 2.0403503440320492e-003</internalNodes>
          <leafValues>
            2.9234203696250916e-001 -6.3760094344615936e-002</leafValues></_>
        <_>
          <internalNodes>
            0 -1 118 6.7415118217468262e-002</internalNodes>
          <leafValues>
            -7.0888347923755646e-002 2.9237911105155945e-001</leafValues></_>
        <_>
          <internalNodes>
            0 -1 103 5.9308228082954884e-003</internalNodes>
          <leafValues>
            -3.4550079703330994e-001 5.4495111107826233e-002</leafValues></_>
        <_>
          <internalNodes>
            0 -1 143 2.0601978525519371e-002</internalNodes>
          <leafValues>
            -1.4509047567844391e-001 1.2069291621446609e-001</leafValues></_>
        <_>
          <internalNodes>
            0 -1 94 1.2058403342962265e-002</internalNodes>
          <leafValues>
            1.3606853783130646e-001 -9.8690889775753021e-002</leafValues></_>
        <_>
          <internalNodes>
            0 -1 32 4.0503256022930145e-002</internalNodes>
          <leafValues>
            -9.2179760336875916e-002 2.0797958970069885e-001</leafValues></_>
        <_>
          <internalNodes>
            0 -1 141 4.1562127880752087e-003</internalNodes>
          <leafValues>
            2.3569887876510620e-001 -7.5525790452957153e-002</leafValues></_>
        <_>
          <internalNodes>
            0 -1 136 7.8502982854843140e-002</internalNodes>
          <leafValues>
            2.4874260649085045e-002 -6.3155359029769897e-001</leafValues></_>
        <_>
          <internalNodes>
            0 -1 59 5.9446968138217926e-002</internalNodes>
          <leafValues>
            1.9197199493646622e-002 -6.1425709724426270e-001</leafValues></_>
        <_>
          <internalNodes>
            0 -1 122 1.0118978470563889e-001</internalNodes>
          <leafValues>
            1.3055569492280483e-002 -8.4514033794403076e-001</leafValues></_>
        <_>
          <internalNodes>
            0 -1 83 1.2532135844230652e-001</internalNodes>
          <leafValues>
            1.3207369484007359e-002 -7.9114377498626709e-001</leafValues></_>
        <_>
          <internalNodes>
            0 -1 75 1.8921359151136130e-004</internalNodes>
          <leafValues>
            -3.2724517583847046e-001 4.0402345359325409e-002</leafValues></_>
        <_>
          <internalNodes>
            0 -1 7 7.4708789587020874e-002</internalNodes>
          <leafValues>
            -3.9308894425630569e-002 4.2112985253334045e-001</leafValues></_>
        <_>
          <internalNodes>
            0 -1 6 2.6278650760650635e-001</internalNodes>
          <leafValues>
            1.7846880480647087e-002 -9.8551970720291138e-001</leafValues></_>
        <_>
          <internalNodes>
            0 -1 113 1.1377014964818954e-001</internalNodes>
          <leafValues>
            -3.6260616034269333e-002 4.5299574732780457e-001</leafValues></_>
        <_>
          <internalNodes>
            0 -1 119 3.4662656486034393e-002</internalNodes>
          <leafValues>
            -7.3530659079551697e-002 1.8595509231090546e-001</leafValues></_>
        <_>
          <internalNodes>
            0 -1 83 8.7525639683008194e-003</internalNodes>
          <leafValues>
            1.4253646135330200e-001 -1.0224644094705582e-001</leafValues></_>
        <_>
          <internalNodes>
            0 -1 55 4.6566031873226166e-002</internalNodes>
          <leafValues>
            -6.7527949810028076e-002 2.0101287961006165e-001</leafValues></_>
        <_>
          <internalNodes>
            0 -1 141 2.5972479954361916e-002</internalNodes>
          <leafValues>
            -1.1218307912349701e-001 1.3642337918281555e-001</leafValues></_>
        <_>
          <internalNodes>
            0 -1 117 2.5615576654672623e-002</internalNodes>
          <leafValues>
            -9.7985401749610901e-002 1.5579254925251007e-001</leafValues></_>
        <_>
          <internalNodes>
            0 -1 137 1.9858620362356305e-004</internalNodes>
          <leafValues>
            -5.3835576772689819e-001 2.6814827695488930e-002</leafValues></_>
        <_>
          <internalNodes>
            0 -1 89 1.5452823136001825e-003</internalNodes>
          <leafValues>
            3.6816877126693726e-001 -3.7475761026144028e-002</leafValues></_>
        <_>
          <internalNodes>
            0 -1 124 3.6069862544536591e-002</internalNodes>
          <leafValues>
            -6.2181346118450165e-002 2.2117914259433746e-001</leafValues></_>
        <_>
          <internalNodes>
            0 -1 87 2.2985666990280151e-002</internalNodes>
          <leafValues>
            6.9723926484584808e-002 -2.1965846419334412e-001</leafValues></_>
        <_>
          <internalNodes>
            0 -1 143 1.0527643561363220e-001</internalNodes>
          <leafValues>
            2.5494154542684555e-002 -4.6836298704147339e-001</leafValues></_></weakClassifiers></_>
    <!-- stage 3 -->
    <_>
      <maxWeakCount>131</maxWeakCount>
      <stageThreshold>-1.7878336906433105e+000</stageThreshold>
      <weakClassifiers>
        <_>
          <internalNodes>
            0 -1 91 1.5391929447650909e-001</internalNodes>
          <leafValues>
            -5.1045942306518555e-001 2.8831169009208679e-001</leafValues></_>
        <_>
          <internalNodes>
            0 -1 33 8.0960720777511597e-002</internalNodes>
          <leafValues>
            -2.1175333857536316e-001 4.1147524118423462e-001</leafValues></_>
        <_>
          <internalNodes>
            0 -1 32 9.9978014826774597e-002</internalNodes>
          <leafValues>
            -6.7874260246753693e-002 4.6063408255577087e-001</leafValues></_>
        <_>
          <internalNodes>
            0 -1 112 7.3254285380244255e-003</internalNodes>
          <leafValues>
            2.3953181505203247e-001 -1.5361294150352478e-001</leafValues></_>
        <_>
          <internalNodes>
            0 -1 115 1.9102625548839569e-002</internalNodes>
          <leafValues>
            1.2342189997434616e-001 -2.2384865581989288e-001</leafValues></_>
        <_>
          <internalNodes>
            0 -1 102 1.3377640862017870e-003</internalNodes>
          <leafValues>
            -5.5377274751663208e-001 4.0284145623445511e-002</leafValues></_>
        <_>
          <internalNodes>
            0 -1 62 1.0162344574928284e-001</internalNodes>
          <leafValues>
            -4.3808896094560623e-002 4.9951213598251343e-001</leafValues></_>
        <_>
          <internalNodes>
            0 -1 22 5.3613662719726563e-002</internalNodes>
          <leafValues>
            6.0963366180658340e-002 -3.9965337514877319e-001</leafValues></_>
        <_>
          <internalNodes>
            0 -1 57 2.5160686345770955e-004</internalNodes>
          <leafValues>
            -4.7939071059226990e-001 6.8517521023750305e-002</leafValues></_>
        <_>
          <internalNodes>
            0 -1 56 1.0749246180057526e-001</internalNodes>
          <leafValues>
            3.0827211216092110e-002 -6.3400608301162720e-001</leafValues></_>
        <_>
          <internalNodes>
            0 -1 19 6.9529026746749878e-002</internalNodes>
          <leafValues>
            -1.0390357673168182e-001 2.5100454688072205e-001</leafValues></_>
        <_>
          <internalNodes>
            0 -1 6 5.4594501852989197e-002</internalNodes>
          <leafValues>
            -6.0566715896129608e-002 3.1643497943878174e-001</leafValues></_>
        <_>
          <internalNodes>
            0 -1 3 1.6921168426051736e-003</internalNodes>
          <leafValues>
            -3.4085905551910400e-001 6.2815308570861816e-002</leafValues></_>
        <_>
          <internalNodes>
            0 -1 80 5.6662097573280334e-002</internalNodes>
          <leafValues>
            -7.2649352252483368e-002 2.6572656631469727e-001</leafValues></_>
        <_>
          <internalNodes>
            0 -1 68 2.4352852255105972e-002</internalNodes>
          <leafValues>
            -1.1524425446987152e-001 1.7123043537139893e-001</leafValues></_>
        <_>
          <internalNodes>
            0 -1 84 2.5705546140670776e-003</internalNodes>
          <leafValues>
            -3.4651154279708862e-001 7.0211477577686310e-002</leafValues></_>
        <_>
          <internalNodes>
            0 -1 1 2.9706260189414024e-002</internalNodes>
          <leafValues>
            6.0956690460443497e-002 -3.0107805132865906e-001</leafValues></_>
        <_>
          <internalNodes>
            0 -1 109 5.3900320082902908e-002</internalNodes>
          <leafValues>
            -8.9211754500865936e-002 2.7604603767395020e-001</leafValues></_>
        <_>
          <internalNodes>
            0 -1 143 1.0167225264012814e-002</internalNodes>
          <leafValues>
            -2.1449495851993561e-001 9.0571440756320953e-002</leafValues></_>
        <_>
          <internalNodes>
            0 -1 113 5.7948451489210129e-002</internalNodes>
          <leafValues>
            -6.5652020275592804e-002 2.9783940315246582e-001</leafValues></_>
        <_>
          <internalNodes>
            0 -1 4 3.7373311817646027e-002</internalNodes>
          <leafValues>
            7.1769341826438904e-002 -2.5201317667961121e-001</leafValues></_>
        <_>
          <internalNodes>
            0 -1 138 6.9148037582635880e-003</internalNodes>
          <leafValues>
            -2.2976242005825043e-001 8.0512113869190216e-002</leafValues></_>
        <_>
          <internalNodes>
            0 -1 118 5.0351180136203766e-002</internalNodes>
          <leafValues>
            -8.0856785178184509e-002 2.0399194955825806e-001</leafValues></_>
        <_>
          <internalNodes>
            0 -1 10 3.2230813521891832e-003</internalNodes>
          <leafValues>
            2.6188954710960388e-001 -7.6320834457874298e-002</leafValues></_>
        <_>
          <internalNodes>
            0 -1 17 1.2430179864168167e-002</internalNodes>
          <leafValues>
            -1.8945127725601196e-001 9.7653098404407501e-002</leafValues></_>
        <_>
          <internalNodes>
            0 -1 87 3.8638342171907425e-002</internalNodes>
          <leafValues>
            3.6988753825426102e-002 -4.0492424368858337e-001</leafValues></_>
        <_>
          <internalNodes>
            0 -1 63 2.6808518916368484e-002</internalNodes>
          <leafValues>
            7.0255361497402191e-002 -2.1879108250141144e-001</leafValues></_>
        <_>
          <internalNodes>
            0 -1 134 7.0295622572302818e-003</internalNodes>
          <leafValues>
            -2.4389493465423584e-001 7.3990300297737122e-002</leafValues></_>
        <_>
          <internalNodes>
            0 -1 98 7.2327391244471073e-003</internalNodes>
          <leafValues>
            1.9741134345531464e-001 -9.2148415744304657e-002</leafValues></_>
        <_>
          <internalNodes>
            0 -1 86 4.2091065552085638e-004</internalNodes>
          <leafValues>
            -4.0317025780677795e-001 3.6906998604536057e-002</leafValues></_>
        <_>
          <internalNodes>
            0 -1 94 1.1924632824957371e-002</internalNodes>
          <leafValues>
            1.4388893544673920e-001 -1.2424263358116150e-001</leafValues></_>
        <_>
          <internalNodes>
            0 -1 3 1.5391271561384201e-002</internalNodes>
          <leafValues>
            -9.4103612005710602e-002 1.5930218994617462e-001</leafValues></_>
        <_>
          <internalNodes>
            0 -1 106 3.4144297242164612e-002</internalNodes>
          <leafValues>
            -8.1341885030269623e-002 1.8417441844940186e-001</leafValues></_>
        <_>
          <internalNodes>
            0 -1 142 9.3982942402362823e-002</internalNodes>
          <leafValues>
            2.5058358907699585e-002 -7.1768498420715332e-001</leafValues></_>
        <_>
          <internalNodes>
            0 -1 109 5.7678477605804801e-004</internalNodes>
          <leafValues>
            3.3790463209152222e-001 -4.4978909194469452e-002</leafValues></_>
        <_>
          <internalNodes>
            0 -1 127 4.7882162034511566e-002</internalNodes>
          <leafValues>
            -8.0663055181503296e-002 2.3271457850933075e-001</leafValues></_>
        <_>
          <internalNodes>
            0 -1 101 8.7380826473236084e-002</internalNodes>
          <leafValues>
            2.7279535308480263e-002 -5.4948133230209351e-001</leafValues></_>
        <_>
          <internalNodes>
            0 -1 86 6.7591354250907898e-002</internalNodes>
          <leafValues>
            1.1677934788167477e-002 -8.2553803920745850e-001</leafValues></_>
        <_>
          <internalNodes>
            0 -1 89 2.3158527910709381e-003</internalNodes>
          <leafValues>
            2.8951397538185120e-001 -4.7998677939176559e-002</leafValues></_>
        <_>
          <internalNodes>
            0 -1 81 4.7779463231563568e-002</internalNodes>
          <leafValues>
            -6.1303716152906418e-002 2.5392600893974304e-001</leafValues></_>
        <_>
          <internalNodes>
            0 -1 82 1.3888531923294067e-001</internalNodes>
          <leafValues>
            1.9913256168365479e-002 -7.2873800992965698e-001</leafValues></_>
        <_>
          <internalNodes>
            0 -1 136 7.7180892229080200e-002</internalNodes>
          <leafValues>
            1.6853056848049164e-002 -6.5211784839630127e-001</leafValues></_>
        <_>
          <internalNodes>
            0 -1 39 1.2926191091537476e-001</internalNodes>
          <leafValues>
            1.0358978994190693e-002 -9.5260655879974365e-001</leafValues></_>
        <_>
          <internalNodes>
            0 -1 141 2.9262667521834373e-003</internalNodes>
          <leafValues>
            2.4287462234497070e-001 -6.1046350747346878e-002</leafValues></_>
        <_>
          <internalNodes>
            0 -1 141 4.1108071804046631e-002</internalNodes>
          <leafValues>
            -8.7382860481739044e-002 1.6729712486267090e-001</leafValues></_>
        <_>
          <internalNodes>
            0 -1 53 1.3336011767387390e-001</internalNodes>
          <leafValues>
            2.2482052445411682e-002 -6.3983887434005737e-001</leafValues></_>
        <_>
          <internalNodes>
            0 -1 69 2.1492636203765869e-001</internalNodes>
          <leafValues>
            1.3325581327080727e-002 -8.1664621829986572e-001</leafValues></_>
        <_>
          <internalNodes>
            0 -1 59 7.6519399881362915e-002</internalNodes>
          <leafValues>
            9.2889089137315750e-003 -8.3747977018356323e-001</leafValues></_>
        <_>
          <internalNodes>
            0 -1 83 6.5195243805646896e-003</internalNodes>
          <leafValues>
            1.4211763441562653e-001 -8.2889765501022339e-002</leafValues></_>
        <_>
          <internalNodes>
            0 -1 46 1.0723991692066193e-001</internalNodes>
          <leafValues>
            -4.9944721162319183e-002 3.0268082022666931e-001</leafValues></_>
        <_>
          <internalNodes>
            0 -1 21 2.5271266349591315e-004</internalNodes>
          <leafValues>
            -3.7736025452613831e-001 3.1277537345886230e-002</leafValues></_>
        <_>
          <internalNodes>
            0 -1 42 1.4313310384750366e-001</internalNodes>
          <leafValues>
            -3.0462216585874557e-002 4.4198417663574219e-001</leafValues></_>
        <_>
          <internalNodes>
            0 -1 62 5.9236265718936920e-002</internalNodes>
          <leafValues>
            -5.8023840188980103e-002 2.5735375285148621e-001</leafValues></_>
        <_>
          <internalNodes>
            0 -1 122 7.5475633144378662e-002</internalNodes>
          <leafValues>
            2.1576488390564919e-002 -5.3777486085891724e-001</leafValues></_>
        <_>
          <internalNodes>
            0 -1 50 5.1425974816083908e-002</internalNodes>
          <leafValues>
            -5.1133655011653900e-002 2.4348960816860199e-001</leafValues></_>
        <_>
          <internalNodes>
            0 -1 47 5.1237456500530243e-002</internalNodes>
          <leafValues>
            -5.7234775274991989e-002 2.0733988285064697e-001</leafValues></_>
        <_>
          <internalNodes>
            0 -1 52 1.6264033038169146e-003</internalNodes>
          <leafValues>
            -3.3675226569175720e-001 4.6568650752305984e-002</leafValues></_>
        <_>
          <internalNodes>
            0 -1 87 7.8797921538352966e-002</internalNodes>
          <leafValues>
            1.4193278737366199e-002 -8.2368141412734985e-001</leafValues></_>
        <_>
          <internalNodes>
            0 -1 117 8.3218261599540710e-002</internalNodes>
          <leafValues>
            -3.0179623514413834e-002 3.9354756474494934e-001</leafValues></_>
        <_>
          <internalNodes>
            0 -1 67 7.7373203821480274e-003</internalNodes>
          <leafValues>
            -1.9862939417362213e-001 5.8289118111133575e-002</leafValues></_>
        <_>
          <internalNodes>
            0 -1 139 3.1458511948585510e-002</internalNodes>
          <leafValues>
            9.0893767774105072e-002 -1.4601050317287445e-001</leafValues></_>
        <_>
          <internalNodes>
            0 -1 107 1.3887324929237366e-001</internalNodes>
          <leafValues>
            1.1250934563577175e-002 -8.1608361005783081e-001</leafValues></_>
        <_>
          <internalNodes>
            0 -1 74 1.1452782154083252e-001</internalNodes>
          <leafValues>
            7.5561930425465107e-003 -8.9418619871139526e-001</leafValues></_>
        <_>
          <internalNodes>
            0 -1 63 9.2881985008716583e-002</internalNodes>
          <leafValues>
            1.1405603028833866e-002 -7.0476567745208740e-001</leafValues></_>
        <_>
          <internalNodes>
            0 -1 114 3.1264228746294975e-003</internalNodes>
          <leafValues>
            1.6647155582904816e-001 -6.2419157475233078e-002</leafValues></_>
        <_>
          <internalNodes>
            0 -1 50 1.6479403711855412e-003</internalNodes>
          <leafValues>
            -2.6864209771156311e-001 4.4774577021598816e-002</leafValues></_>
        <_>
          <internalNodes>
            0 -1 34 7.8018710017204285e-002</internalNodes>
          <leafValues>
            -3.5871282219886780e-002 3.3070075511932373e-001</leafValues></_>
        <_>
          <internalNodes>
            0 -1 52 1.7455408349633217e-002</internalNodes>
          <leafValues>
            9.3784615397453308e-002 -1.2772037088871002e-001</leafValues></_>
        <_>
          <internalNodes>
            0 -1 102 1.4247205853462219e-001</internalNodes>
          <leafValues>
            1.2969932518899441e-002 -8.0659735202789307e-001</leafValues></_>
        <_>
          <internalNodes>
            0 -1 130 1.1585728079080582e-001</internalNodes>
          <leafValues>
            1.1968257836997509e-002 -6.8704533576965332e-001</leafValues></_>
        <_>
          <internalNodes>
            0 -1 66 2.7081562206149101e-002</internalNodes>
          <leafValues>
            -6.7565955221652985e-002 1.5512259304523468e-001</leafValues></_>
        <_>
          <internalNodes>
            0 -1 37 1.9539287313818932e-003</internalNodes>
          <leafValues>
            2.2239208221435547e-001 -4.7718763351440430e-002</leafValues></_>
        <_>
          <internalNodes>
            0 -1 75 2.4581229081377387e-004</internalNodes>
          <leafValues>
            -2.8554648160934448e-001 3.9049100130796432e-002</leafValues></_>
        <_>
          <internalNodes>
            0 -1 76 2.3750737309455872e-002</internalNodes>
          <leafValues>
            7.2472326457500458e-002 -1.7895269393920898e-001</leafValues></_>
        <_>
          <internalNodes>
            0 -1 6 2.4057802557945251e-001</internalNodes>
          <leafValues>
            1.3883326202630997e-002 -8.9471739530563354e-001</leafValues></_>
        <_>
          <internalNodes>
            0 -1 98 1.7019680142402649e-001</internalNodes>
          <leafValues>
            6.6541554406285286e-003 -9.5688003301620483e-001</leafValues></_>
        <_>
          <internalNodes>
            0 -1 5 3.2385013997554779e-002</internalNodes>
          <leafValues>
            -6.1250835657119751e-002 1.8101526796817780e-001</leafValues></_>
        <_>
          <internalNodes>
            0 -1 80 3.5620145499706268e-003</internalNodes>
          <leafValues>
            -2.8655132651329041e-001 4.0322583168745041e-002</leafValues></_>
        <_>
          <internalNodes>
            0 -1 12 6.8429611623287201e-002</internalNodes>
          <leafValues>
            -2.7554158121347427e-002 4.2038464546203613e-001</leafValues></_>
        <_>
          <internalNodes>
            0 -1 76 2.2664852440357208e-003</internalNodes>
          <leafValues>
            2.1865738928318024e-001 -5.2835576236248016e-002</leafValues></_>
        <_>
          <internalNodes>
            0 -1 121 1.1285198479890823e-001</internalNodes>
          <leafValues>
            2.0000383257865906e-002 -5.2583897113800049e-001</leafValues></_>
        <_>
          <internalNodes>
            0 -1 142 4.1571622714400291e-003</internalNodes>
          <leafValues>
            2.0056998729705811e-001 -5.6748948991298676e-002</leafValues></_>
        <_>
          <internalNodes>
            0 -1 11 8.0382283776998520e-003</internalNodes>
          <leafValues>
            1.1657308787107468e-001 -9.8217189311981201e-002</leafValues></_>
        <_>
          <internalNodes>
            0 -1 85 4.5186709612607956e-003</internalNodes>
          <leafValues>
            -2.4092201888561249e-001 5.0272643566131592e-002</leafValues></_>
        <_>
          <internalNodes>
            0 -1 138 1.4220145344734192e-001</internalNodes>
          <leafValues>
            8.5559077560901642e-003 -1.</leafValues></_>
        <_>
          <internalNodes>
            0 -1 133 1.3614302873611450e-001</internalNodes>
          <leafValues>
            6.9987266324460506e-003 -1.</leafValues></_>
        <_>
          <internalNodes>
            0 -1 138 3.1357724219560623e-004</internalNodes>
          <leafValues>
            -4.9748927354812622e-001 1.7026262357831001e-002</leafValues></_>
        <_>
          <internalNodes>
            0 -1 65 1.1056883633136749e-001</internalNodes>
          <leafValues>
            9.0876296162605286e-003 -8.9061427116394043e-001</leafValues></_>
        <_>
          <internalNodes>
            0 -1 116 2.3550079204142094e-003</internalNodes>
          <leafValues>
            2.3138774931430817e-001 -4.2783770710229874e-002</leafValues></_>
        <_>
          <internalNodes>
            0 -1 58 1.1164918541908264e-002</internalNodes>
          <leafValues>
            1.0968334227800369e-001 -8.2244336605072021e-002</leafValues></_>
        <_>
          <internalNodes>
            0 -1 3 7.7545298263430595e-003</internalNodes>
          <leafValues>
            -1.2406896799802780e-001 8.9689455926418304e-002</leafValues></_>
        <_>
          <internalNodes>
            0 -1 4 1.2539863586425781e-002</internalNodes>
          <leafValues>
            1.0692206025123596e-001 -9.6753247082233429e-002</leafValues></_>
        <_>
          <internalNodes>
            0 -1 83 1.0267923772335052e-001</internalNodes>
          <leafValues>
            1.7902897670865059e-002 -5.5968719720840454e-001</leafValues></_>
        <_>
          <internalNodes>
            0 -1 48 1.2192799896001816e-001</internalNodes>
          <leafValues>
            9.9816415458917618e-003 -8.0711507797241211e-001</leafValues></_>
        <_>
          <internalNodes>
            0 -1 87 1.2552652508020401e-002</internalNodes>
          <leafValues>
            7.8944854438304901e-002 -1.2141332775354385e-001</leafValues></_>
        <_>
          <internalNodes>
            0 -1 25 3.3247023820877075e-002</internalNodes>
          <leafValues>
            -5.1663268357515335e-002 1.7502933740615845e-001</leafValues></_>
        <_>
          <internalNodes>
            0 -1 60 5.2659377455711365e-002</internalNodes>
          <leafValues>
            2.7944931760430336e-002 -3.9957106113433838e-001</leafValues></_>
        <_>
          <internalNodes>
            0 -1 137 4.9706567078828812e-002</internalNodes>
          <leafValues>
            2.3538945242762566e-002 -3.7412536144256592e-001</leafValues></_>
        <_>
          <internalNodes>
            0 -1 140 1.2368928641080856e-001</internalNodes>
          <leafValues>
            1.2650590389966965e-002 -6.4277559518814087e-001</leafValues></_>
        <_>
          <internalNodes>
            0 -1 36 3.3569604158401489e-002</internalNodes>
          <leafValues>
            4.4486284255981445e-002 -2.0701470971107483e-001</leafValues></_>
        <_>
          <internalNodes>
            0 -1 48 8.8895161752589047e-005</internalNodes>
          <leafValues>
            -3.4946498274803162e-001 2.5612452998757362e-002</leafValues></_>
        <_>
          <internalNodes>
            0 -1 44 1.7130801081657410e-001</internalNodes>
          <leafValues>
            7.5411680154502392e-003 -1.</leafValues></_>
        <_>
          <internalNodes>
            0 -1 118 3.9293110370635986e-002</internalNodes>
          <leafValues>
            -7.0335276424884796e-002 1.1725700646638870e-001</leafValues></_>
        <_>
          <internalNodes>
            0 -1 68 3.5918198525905609e-002</internalNodes>
          <leafValues>
            -6.6621124744415283e-002 1.8018904328346252e-001</leafValues></_>
        <_>
          <internalNodes>
            0 -1 117 6.0053350171074271e-004</internalNodes>
          <leafValues>
            3.0684867501258850e-001 -2.6588076725602150e-002</leafValues></_>
        <_>
          <internalNodes>
            0 -1 72 1.4197838492691517e-002</internalNodes>
          <leafValues>
            -1.0032693296670914e-001 9.7552455961704254e-002</leafValues></_>
        <_>
          <internalNodes>
            0 -1 78 4.5448511838912964e-002</internalNodes>
          <leafValues>
            -5.2919037640094757e-002 1.5917477011680603e-001</leafValues></_>
        <_>
          <internalNodes>
            0 -1 114 1.4878174290060997e-002</internalNodes>
          <leafValues>
            9.6263855695724487e-002 -1.1438073962926865e-001</leafValues></_>
        <_>
          <internalNodes>
            0 -1 42 1.7780270427465439e-002</internalNodes>
          <leafValues>
            -1.0157540440559387e-001 1.2961721420288086e-001</leafValues></_>
        <_>
          <internalNodes>
            0 -1 19 5.0283022224903107e-002</internalNodes>
          <leafValues>
            -6.6717922687530518e-002 1.5255707502365112e-001</leafValues></_>
        <_>
          <internalNodes>
            0 -1 125 3.2307773828506470e-002</internalNodes>
          <leafValues>
            -6.9311484694480896e-002 1.3731914758682251e-001</leafValues></_>
        <_>
          <internalNodes>
            0 -1 1 1.0896357148885727e-001</internalNodes>
          <leafValues>
            1.4167574234306812e-002 -6.5020543336868286e-001</leafValues></_>
        <_>
          <internalNodes>
            0 -1 105 2.4311202764511108e-001</internalNodes>
          <leafValues>
            4.5918989926576614e-003 -1.</leafValues></_>
        <_>
          <internalNodes>
            0 -1 81 2.3958745878189802e-003</internalNodes>
          <leafValues>
            2.0314787328243256e-001 -4.1245438158512115e-002</leafValues></_>
        <_>
          <internalNodes>
            0 -1 122 1.2062186002731323e-001</internalNodes>
          <leafValues>
            8.9821247383952141e-003 -8.8462394475936890e-001</leafValues></_>
        <_>
          <internalNodes>
            0 -1 3 2.2705632727593184e-004</internalNodes>
          <leafValues>
            -3.2625156641006470e-001 2.2175820544362068e-002</leafValues></_>
        <_>
          <internalNodes>
            0 -1 30 1.3808196783065796e-001</internalNodes>
          <leafValues>
            8.5228933021426201e-003 -7.5665217638015747e-001</leafValues></_>
        <_>
          <internalNodes>
            0 -1 89 1.9550371170043945e-001</internalNodes>
          <leafValues>
            5.9812678955495358e-003 -8.9312899112701416e-001</leafValues></_>
        <_>
          <internalNodes>
            0 -1 101 5.6582549586892128e-003</internalNodes>
          <leafValues>
            1.3369390368461609e-001 -5.8151710778474808e-002</leafValues></_>
        <_>
          <internalNodes>
            0 -1 136 4.9768754979595542e-004</internalNodes>
          <leafValues>
            -3.4905380010604858e-001 2.7698427438735962e-002</leafValues></_>
        <_>
          <internalNodes>
            0 -1 96 7.1950107812881470e-003</internalNodes>
          <leafValues>
            1.0977442562580109e-001 -6.8021290004253387e-002</leafValues></_>
        <_>
          <internalNodes>
            0 -1 109 1.4291348867118359e-002</internalNodes>
          <leafValues>
            1.0365063697099686e-001 -9.4816043972969055e-002</leafValues></_>
        <_>
          <internalNodes>
            0 -1 118 1.9409043714404106e-002</internalNodes>
          <leafValues>
            -1.0581178963184357e-001 8.4839239716529846e-002</leafValues></_>
        <_>
          <internalNodes>
            0 -1 105 3.8138203322887421e-002</internalNodes>
          <leafValues>
            -6.3815489411354065e-002 1.3242922723293304e-001</leafValues></_>
        <_>
          <internalNodes>
            0 -1 120 2.2070993145462126e-004</internalNodes>
          <leafValues>
            -5.2587819099426270e-001 1.5542661771178246e-002</leafValues></_>
        <_>
          <internalNodes>
            0 -1 35 1.9045498967170715e-001</internalNodes>
          <leafValues>
            6.4958864822983742e-003 -1.</leafValues></_>
        <_>
          <internalNodes>
            0 -1 76 8.6440540850162506e-002</internalNodes>
          <leafValues>
            1.4707242138683796e-002 -4.7005793452262878e-001</leafValues></_>
        <_>
          <internalNodes>
            0 -1 129 6.6222846508026123e-002</internalNodes>
          <leafValues>
            -2.4834090843796730e-002 3.0468860268592834e-001</leafValues></_>
        <_>
          <internalNodes>
            0 -1 139 1.6833430528640747e-001</internalNodes>
          <leafValues>
            8.1118568778038025e-003 -9.1865944862365723e-001</leafValues></_>
        <_>
          <internalNodes>
            0 -1 56 1.8190053105354309e-001</internalNodes>
          <leafValues>
            4.9110818654298782e-003 -8.9421486854553223e-001</leafValues></_>
        <_>
          <internalNodes>
            0 -1 141 4.1522616520524025e-003</internalNodes>
          <leafValues>
            1.4000925421714783e-001 -5.1868189126253128e-002</leafValues></_></weakClassifiers></_>
    <!-- stage 4 -->
    <_>
      <maxWeakCount>187</maxWeakCount>
      <stageThreshold>-1.6631356477737427e+000</stageThreshold>
      <weakClassifiers>
        <_>
          <internalNodes>
            0 -1 69 8.3898432552814484e-002</internalNodes>
          <leafValues>
            -5.3815704584121704e-001 -5.5613849312067032e-002</leafValues></_>
        <_>
          <internalNodes>
            0 -1 91 1.3235577940940857e-001</internalNodes>
          <leafValues>
            -1.3839860260486603e-001 4.8847880959510803e-001</leafValues></_>
        <_>
          <internalNodes>
            0 -1 114 9.9855139851570129e-002</internalNodes>
          <leafValues>
            -7.4556171894073486e-002 3.3708667755126953e-001</leafValues></_>
        <_>
          <internalNodes>
            0 -1 115 1.0871003381907940e-002</internalNodes>
          <leafValues>
            1.5141278505325317e-001 -1.5095928311347961e-001</leafValues></_>
        <_>
          <internalNodes>
            0 -1 141 2.6409465819597244e-002</internalNodes>
          <leafValues>
            -1.3598345220088959e-001 1.3575999438762665e-001</leafValues></_>
        <_>
          <internalNodes>
            0 -1 112 2.6784026995301247e-003</internalNodes>
          <leafValues>
            2.4527612328529358e-001 -7.5735189020633698e-002</leafValues></_>
        <_>
          <internalNodes>
            0 -1 138 4.4149076566100121e-003</internalNodes>
          <leafValues>
            -2.8851050138473511e-001 7.3235251009464264e-002</leafValues></_>
        <_>
          <internalNodes>
            0 -1 109 7.3251008987426758e-002</internalNodes>
          <leafValues>
            -4.5553490519523621e-002 2.7640432119369507e-001</leafValues></_>
        <_>
          <internalNodes>
            0 -1 50 5.1415354013442993e-002</internalNodes>
          <leafValues>
            -7.6450414955615997e-002 2.7763178944587708e-001</leafValues></_>
        <_>
          <internalNodes>
            0 -1 62 2.4655789136886597e-002</internalNodes>
          <leafValues>
            -1.1725123971700668e-001 1.5171083807945251e-001</leafValues></_>
        <_>
          <internalNodes>
            0 -1 117 2.8552368283271790e-002</internalNodes>
          <leafValues>
            -7.0092506706714630e-002 2.1560473740100861e-001</leafValues></_>
        <_>
          <internalNodes>
            0 -1 118 2.1443851292133331e-003</internalNodes>
          <leafValues>
            2.8562694787979126e-001 -6.0108359903097153e-002</leafValues></_>
        <_>
          <internalNodes>
            0 -1 120 7.7579771168529987e-003</internalNodes>
          <leafValues>
            -2.3503832519054413e-001 1.0623175650835037e-001</leafValues></_>
        <_>
          <internalNodes>
            0 -1 127 9.1101147234439850e-002</internalNodes>
          <leafValues>
            -4.9171868711709976e-002 2.7215826511383057e-001</leafValues></_>
        <_>
          <internalNodes>
            0 -1 70 4.0828488767147064e-002</internalNodes>
          <leafValues>
            -8.0570563673973083e-002 2.0852385461330414e-001</leafValues></_>
        <_>
          <internalNodes>
            0 -1 95 1.0641790926456451e-001</internalNodes>
          <leafValues>
            -3.1698130071163177e-002 3.8146734237670898e-001</leafValues></_>
        <_>
          <internalNodes>
            0 -1 80 2.3340985178947449e-002</internalNodes>
          <leafValues>
            -1.3275019824504852e-001 1.3857379555702209e-001</leafValues></_>
        <_>
          <internalNodes>
            0 -1 47 6.2949612736701965e-002</internalNodes>
          <leafValues>
            -5.5635534226894379e-002 2.8473013639450073e-001</leafValues></_>
        <_>
          <internalNodes>
            0 -1 37 1.0069773998111486e-003</internalNodes>
          <leafValues>
            2.8779906034469604e-001 -4.7849547117948532e-002</leafValues></_>
        <_>
          <internalNodes>
            0 -1 69 2.3137207329273224e-001</internalNodes>
          <leafValues>
            1.8366875126957893e-002 -8.6660683155059814e-001</leafValues></_>
        <_>
          <internalNodes>
            0 -1 3 7.1778264828026295e-004</internalNodes>
          <leafValues>
            -3.1527602672576904e-001 2.9381763190031052e-002</leafValues></_>
        <_>
          <internalNodes>
            0 -1 6 7.9797461628913879e-002</internalNodes>
          <leafValues>
            -4.6456094831228256e-002 2.4062275886535645e-001</leafValues></_>
        <_>
          <internalNodes>
            0 -1 127 2.2181563079357147e-002</internalNodes>
          <leafValues>
            -1.0245418548583984e-001 1.2650817632675171e-001</leafValues></_>
        <_>
          <internalNodes>
            0 -1 140 4.0522716939449310e-002</internalNodes>
          <leafValues>
            -6.3845045864582062e-002 1.8357449769973755e-001</leafValues></_>
        <_>
          <internalNodes>
            0 -1 137 1.7945801664609462e-004</internalNodes>
          <leafValues>
            -5.0557518005371094e-001 2.3008178919553757e-002</leafValues></_>
        <_>
          <internalNodes>
            0 -1 136 8.3666354417800903e-002</internalNodes>
          <leafValues>
            1.3333639129996300e-002 -6.4723414182662964e-001</leafValues></_>
        <_>
          <internalNodes>
            0 -1 118 4.7161571681499481e-002</internalNodes>
          <leafValues>
            -7.9297982156276703e-002 1.6334930062294006e-001</leafValues></_>
        <_>
          <internalNodes>
            0 -1 110 1.0948766954243183e-002</internalNodes>
          <leafValues>
            1.0971333831548691e-001 -1.1337246000766754e-001</leafValues></_>
        <_>
          <internalNodes>
            0 -1 37 5.0236597657203674e-002</internalNodes>
          <leafValues>
            -5.2288211882114410e-002 2.0147646963596344e-001</leafValues></_>
        <_>
          <internalNodes>
            0 -1 106 1.8055068328976631e-002</internalNodes>
          <leafValues>
            -1.1705314368009567e-001 1.1317393928766251e-001</leafValues></_>
        <_>
          <internalNodes>
            0 -1 141 1.5079705044627190e-003</internalNodes>
          <leafValues>
            2.9286506772041321e-001 -3.9941169321537018e-002</leafValues></_>
        <_>
          <internalNodes>
            0 -1 12 2.3011758457869291e-004</internalNodes>
          <leafValues>
            -3.1116086244583130e-001 3.2120671123266220e-002</leafValues></_>
        <_>
          <internalNodes>
            0 -1 82 7.9114381223917007e-003</internalNodes>
          <leafValues>
            1.4108678698539734e-001 -8.1475026905536652e-002</leafValues></_>
        <_>
          <internalNodes>
            0 -1 17 1.2969508767127991e-002</internalNodes>
          <leafValues>
            -1.4596161246299744e-001 7.5450845062732697e-002</leafValues></_>
        <_>
          <internalNodes>
            0 -1 16 2.1124722436070442e-002</internalNodes>
          <leafValues>
            7.8456550836563110e-002 -1.5283638238906860e-001</leafValues></_>
        <_>
          <internalNodes>
            0 -1 1 4.3195180594921112e-002</internalNodes>
          <leafValues>
            3.1084287911653519e-002 -2.8622817993164063e-001</leafValues></_>
        <_>
          <internalNodes>
            0 -1 3 1.1367313563823700e-002</internalNodes>
          <leafValues>
            -9.2614069581031799e-002 1.0102497041225433e-001</leafValues></_>
        <_>
          <internalNodes>
            0 -1 76 4.8186071217060089e-003</internalNodes>
          <leafValues>
            1.5166440606117249e-001 -7.5234480202198029e-002</leafValues></_>
        <_>
          <internalNodes>
            0 -1 14 1.4039617963135242e-003</internalNodes>
          <leafValues>
            -2.3744773864746094e-001 4.3181762099266052e-002</leafValues></_>
        <_>
          <internalNodes>
            0 -1 86 1.6964243724942207e-002</internalNodes>
          <leafValues>
            6.0442417860031128e-002 -1.5076154470443726e-001</leafValues></_>
        <_>
          <internalNodes>
            0 -1 141 1.3079643249511719e-001</internalNodes>
          <leafValues>
            2.3113127797842026e-002 -4.0796285867691040e-001</leafValues></_>
        <_>
          <internalNodes>
            0 -1 135 8.1188932061195374e-002</internalNodes>
          <leafValues>
            1.4552456326782703e-002 -6.3776165246963501e-001</leafValues></_>
        <_>
          <internalNodes>
            0 -1 139 5.2786450833082199e-002</internalNodes>
          <leafValues>
            4.7794241458177567e-002 -2.1136151254177094e-001</leafValues></_>
        <_>
          <internalNodes>
            0 -1 138 1.9513454288244247e-002</internalNodes>
          <leafValues>
            -8.2311265170574188e-002 1.0398390144109726e-001</leafValues></_>
        <_>
          <internalNodes>
            0 -1 77 3.9732828736305237e-002</internalNodes>
          <leafValues>
            -4.4307235628366470e-002 1.8831363320350647e-001</leafValues></_>
        <_>
          <internalNodes>
            0 -1 46 9.8648801445960999e-002</internalNodes>
          <leafValues>
            -5.0743717700242996e-002 2.3309725522994995e-001</leafValues></_>
        <_>
          <internalNodes>
            0 -1 143 1.3273891061544418e-002</internalNodes>
          <leafValues>
            -1.4549495279788971e-001 8.1047177314758301e-002</leafValues></_>
        <_>
          <internalNodes>
            0 -1 82 1.5367861092090607e-001</internalNodes>
          <leafValues>
            1.1614062823355198e-002 -7.1074509620666504e-001</leafValues></_>
        <_>
          <internalNodes>
            0 -1 35 1.0989388078451157e-001</internalNodes>
          <leafValues>
            1.6780700534582138e-002 -4.6983504295349121e-001</leafValues></_>
        <_>
          <internalNodes>
            0 -1 22 1.1561480350792408e-002</internalNodes>
          <leafValues>
            1.1331085115671158e-001 -9.7136922180652618e-002</leafValues></_>
        <_>
          <internalNodes>
            0 -1 59 2.3257452994585037e-004</internalNodes>
          <leafValues>
            -3.2905697822570801e-001 2.8503943234682083e-002</leafValues></_>
        <_>
          <internalNodes>
            0 -1 119 3.5054169129580259e-003</internalNodes>
          <leafValues>
            1.6750587522983551e-001 -5.3445857018232346e-002</leafValues></_>
        <_>
          <internalNodes>
            0 -1 118 1.9265253096818924e-002</internalNodes>
          <leafValues>
            -1.1419576406478882e-001 9.8429225385189056e-002</leafValues></_>
        <_>
          <internalNodes>
            0 -1 2 5.3001806139945984e-002</internalNodes>
          <leafValues>
            2.5604857131838799e-002 -3.8718026876449585e-001</leafValues></_>
        <_>
          <internalNodes>
            0 -1 35 1.9382204860448837e-002</internalNodes>
          <leafValues>
            9.0192012488842010e-002 -1.1117571592330933e-001</leafValues></_>
        <_>
          <internalNodes>
            0 -1 134 4.1934713721275330e-002</internalNodes>
          <leafValues>
            -7.0029661059379578e-002 1.7079855501651764e-001</leafValues></_>
        <_>
          <internalNodes>
            0 -1 124 6.3921689987182617e-002</internalNodes>
          <leafValues>
            -2.5789959356188774e-002 3.3557549118995667e-001</leafValues></_>
        <_>
          <internalNodes>
            0 -1 87 2.7824610471725464e-002</internalNodes>
          <leafValues>
            4.1126258671283722e-002 -2.4668000638484955e-001</leafValues></_>
        <_>
          <internalNodes>
            0 -1 100 1.2177632749080658e-001</internalNodes>
          <leafValues>
            1.8917085602879524e-002 -4.6779379248619080e-001</leafValues></_>
        <_>
          <internalNodes>
            0 -1 62 2.0277658104896545e-001</internalNodes>
          <leafValues>
            6.5300650894641876e-003 -1.</leafValues></_>
        <_>
          <internalNodes>
            0 -1 142 1.1603035777807236e-001</internalNodes>
          <leafValues>
            6.8706739693880081e-003 -8.0673670768737793e-001</leafValues></_>
        <_>
          <internalNodes>
            0 -1 20 1.1578072607517242e-001</internalNodes>
          <leafValues>
            1.6308667138218880e-002 -4.3556699156761169e-001</leafValues></_>
        <_>
          <internalNodes>
            0 -1 96 2.5251323822885752e-003</internalNodes>
          <leafValues>
            1.9618311524391174e-001 -5.7058226317167282e-002</leafValues></_>
        <_>
          <internalNodes>
            0 -1 105 7.9147964715957642e-002</internalNodes>
          <leafValues>
            -4.7377970069646835e-002 2.2535678744316101e-001</leafValues></_>
        <_>
          <internalNodes>
            0 -1 6 2.5479143857955933e-001</internalNodes>
          <leafValues>
            7.0279254578053951e-003 -9.1978079080581665e-001</leafValues></_>
        <_>
          <internalNodes>
            0 -1 126 5.8720607310533524e-002</internalNodes>
          <leafValues>
            2.8985004872083664e-002 -2.7436101436614990e-001</leafValues></_>
        <_>
          <internalNodes>
            0 -1 119 1.5117836301214993e-004</internalNodes>
          <leafValues>
            -4.2025041580200195e-001 1.9843606278300285e-002</leafValues></_>
        <_>
          <internalNodes>
            0 -1 85 1.3095186650753021e-001</internalNodes>
          <leafValues>
            8.9808981865644455e-003 -8.0355292558670044e-001</leafValues></_>
        <_>
          <internalNodes>
            0 -1 137 5.6315362453460693e-002</internalNodes>
          <leafValues>
            1.7282404005527496e-002 -4.0640676021575928e-001</leafValues></_>
        <_>
          <internalNodes>
            0 -1 129 9.9084158136975020e-005</internalNodes>
          <leafValues>
            -3.1162267923355103e-001 2.3839544504880905e-002</leafValues></_>
        <_>
          <internalNodes>
            0 -1 89 4.1404026560485363e-003</internalNodes>
          <leafValues>
            1.7930485308170319e-001 -4.8799932003021240e-002</leafValues></_>
        <_>
          <internalNodes>
            0 -1 83 9.4747826457023621e-002</internalNodes>
          <leafValues>
            1.7686013132333755e-002 -4.5614075660705566e-001</leafValues></_>
        <_>
          <internalNodes>
            0 -1 19 6.1938777565956116e-002</internalNodes>
          <leafValues>
            -6.0204654932022095e-002 1.7175389826297760e-001</leafValues></_>
        <_>
          <internalNodes>
            0 -1 115 1.1904685199260712e-001</internalNodes>
          <leafValues>
            -1.8268326297402382e-002 5.2205425500869751e-001</leafValues></_>
        <_>
          <internalNodes>
            0 -1 130 1.3620661199092865e-001</internalNodes>
          <leafValues>
            1.2784305959939957e-002 -8.1335300207138062e-001</leafValues></_>
        <_>
          <internalNodes>
            0 -1 98 1.3397674076259136e-002</internalNodes>
          <leafValues>
            9.3157440423965454e-002 -8.8934585452079773e-002</leafValues></_>
        <_>
          <internalNodes>
            0 -1 134 5.8841947466135025e-003</internalNodes>
          <leafValues>
            -2.5129431486129761e-001 6.2204215675592422e-002</leafValues></_>
        <_>
          <internalNodes>
            0 -1 117 8.2039542496204376e-002</internalNodes>
          <leafValues>
            -2.6957245543599129e-002 3.2999750971794128e-001</leafValues></_>
        <_>
          <internalNodes>
            0 -1 143 1.0551291704177856e-001</internalNodes>
          <leafValues>
            2.1041175350546837e-002 -4.2771491408348083e-001</leafValues></_>
        <_>
          <internalNodes>
            0 -1 12 2.7178019285202026e-002</internalNodes>
          <leafValues>
            -5.4837919771671295e-002 1.5529043972492218e-001</leafValues></_>
        <_>
          <internalNodes>
            0 -1 42 2.1290669217705727e-002</internalNodes>
          <leafValues>
            -7.7119238674640656e-002 1.0748463124036789e-001</leafValues></_>
        <_>
          <internalNodes>
            0 -1 78 6.9574010558426380e-003</internalNodes>
          <leafValues>
            1.2659224867820740e-001 -8.6351811885833740e-002</leafValues></_>
        <_>
          <internalNodes>
            0 -1 79 4.6296892687678337e-003</internalNodes>
          <leafValues>
            -1.6881458461284637e-001 5.6296367198228836e-002</leafValues></_>
        <_>
          <internalNodes>
            0 -1 60 2.1499492228031158e-002</internalNodes>
          <leafValues>
            5.7784635573625565e-002 -1.6851316392421722e-001</leafValues></_>
        <_>
          <internalNodes>
            0 -1 67 2.2027682512998581e-002</internalNodes>
          <leafValues>
            -9.3206457793712616e-002 9.0835213661193848e-002</leafValues></_>
        <_>
          <internalNodes>
            0 -1 96 1.8499542772769928e-001</internalNodes>
          <leafValues>
            -2.2885100916028023e-002 4.1039556264877319e-001</leafValues></_>
        <_>
          <internalNodes>
            0 -1 68 1.9178274273872375e-001</internalNodes>
          <leafValues>
            9.1970376670360565e-003 -9.1173565387725830e-001</leafValues></_>
        <_>
          <internalNodes>
            0 -1 53 2.0921507477760315e-001</internalNodes>
          <leafValues>
            3.8952808827161789e-003 -1.</leafValues></_>
        <_>
          <internalNodes>
            0 -1 107 3.7636183202266693e-002</internalNodes>
          <leafValues>
            -6.0062419623136520e-002 1.3354012370109558e-001</leafValues></_>
        <_>
          <internalNodes>
            0 -1 118 1.1480841040611267e-001</internalNodes>
          <leafValues>
            -2.5492906570434570e-002 3.2171794772148132e-001</leafValues></_>
        <_>
          <internalNodes>
            0 -1 86 1.9857662846334279e-004</internalNodes>
          <leafValues>
            -3.4973946213722229e-001 2.4844557046890259e-002</leafValues></_>
        <_>
          <internalNodes>
            0 -1 44 1.3504326343536377e-003</internalNodes>
          <leafValues>
            2.5694712996482849e-001 -3.3546410501003265e-002</leafValues></_>
        <_>
          <internalNodes>
            0 -1 80 7.0897750556468964e-002</internalNodes>
          <leafValues>
            -3.8483109325170517e-002 2.0420430600643158e-001</leafValues></_>
        <_>
          <internalNodes>
            0 -1 32 3.3615142107009888e-002</internalNodes>
          <leafValues>
            -6.5647013485431671e-002 1.1604753136634827e-001</leafValues></_>
        <_>
          <internalNodes>
            0 -1 55 1.0934777557849884e-001</internalNodes>
          <leafValues>
            -3.5724520683288574e-002 2.7487120032310486e-001</leafValues></_>
        <_>
          <internalNodes>
            0 -1 32 1.3618264347314835e-003</internalNodes>
          <leafValues>
            -2.5831857323646545e-001 3.0961686745285988e-002</leafValues></_>
        <_>
          <internalNodes>
            0 -1 94 1.1925860308110714e-002</internalNodes>
          <leafValues>
            9.9609129130840302e-002 -8.9840576052665710e-002</leafValues></_>
        <_>
          <internalNodes>
            0 -1 141 2.3245131969451904e-001</internalNodes>
          <leafValues>
            7.1392287500202656e-003 -1.</leafValues></_>
        <_>
          <internalNodes>
            0 -1 24 5.4227830842137337e-003</internalNodes>
          <leafValues>
            -1.2104923278093338e-001 5.8040857315063477e-002</leafValues></_>
        <_>
          <internalNodes>
            0 -1 51 9.0834191069006920e-003</internalNodes>
          <leafValues>
            1.1184249073266983e-001 -7.5040094554424286e-002</leafValues></_>
        <_>
          <internalNodes>
            0 -1 25 1.2160789966583252e-001</internalNodes>
          <leafValues>
            9.4502884894609451e-003 -7.5766956806182861e-001</leafValues></_>
        <_>
          <internalNodes>
            0 -1 78 4.5496869832277298e-002</internalNodes>
          <leafValues>
            -5.2534181624650955e-002 1.4392432570457458e-001</leafValues></_>
        <_>
          <internalNodes>
            0 -1 79 1.7905991524457932e-002</internalNodes>
          <leafValues>
            7.6444573700428009e-002 -1.0908038169145584e-001</leafValues></_>
        <_>
          <internalNodes>
            0 -1 52 1.1744927614927292e-001</internalNodes>
          <leafValues>
            -2.2295903414487839e-002 4.3076968193054199e-001</leafValues></_>
        <_>
          <internalNodes>
            0 -1 85 4.5223683118820190e-003</internalNodes>
          <leafValues>
            -2.0290170609951019e-001 3.8695111870765686e-002</leafValues></_>
        <_>
          <internalNodes>
            0 -1 143 1.9077959656715393e-001</internalNodes>
          <leafValues>
            5.8034267276525497e-003 -9.5802474021911621e-001</leafValues></_>
        <_>
          <internalNodes>
            0 -1 59 9.0758621692657471e-002</internalNodes>
          <leafValues>
            5.4749539121985435e-003 -8.8878577947616577e-001</leafValues></_>
        <_>
          <internalNodes>
            0 -1 66 1.3746012747287750e-001</internalNodes>
          <leafValues>
            4.5964806340634823e-003 -9.6429854631423950e-001</leafValues></_>
        <_>
          <internalNodes>
            0 -1 129 5.0211094319820404e-002</internalNodes>
          <leafValues>
            -3.1863614916801453e-002 2.3536543548107147e-001</leafValues></_>
        <_>
          <internalNodes>
            0 -1 30 1.1103184521198273e-001</internalNodes>
          <leafValues>
            1.2740148231387138e-002 -6.0562837123870850e-001</leafValues></_>
        <_>
          <internalNodes>
            0 -1 62 9.7454771399497986e-002</internalNodes>
          <leafValues>
            -2.8834596276283264e-002 2.6173260807991028e-001</leafValues></_>
        <_>
          <internalNodes>
            0 -1 26 1.6354212164878845e-001</internalNodes>
          <leafValues>
            8.2037728279829025e-003 -9.7271162271499634e-001</leafValues></_>
        <_>
          <internalNodes>
            0 -1 4 1.4374790713191032e-002</internalNodes>
          <leafValues>
            8.1616207957267761e-002 -9.4344347715377808e-002</leafValues></_>
        <_>
          <internalNodes>
            0 -1 40 4.1975397616624832e-003</internalNodes>
          <leafValues>
            -1.6846814751625061e-001 4.7481656074523926e-002</leafValues></_>
        <_>
          <internalNodes>
            0 -1 102 1.3320594734977931e-004</internalNodes>
          <leafValues>
            -5.7284927368164063e-001 1.1276205070316792e-002</leafValues></_>
        <_>
          <internalNodes>
            0 -1 122 1.0027804970741272e-001</internalNodes>
          <leafValues>
            8.7743168696761131e-003 -6.6307204961776733e-001</leafValues></_>
        <_>
          <internalNodes>
            0 -1 56 1.4002005755901337e-001</internalNodes>
          <leafValues>
            8.8996198028326035e-003 -6.5185713768005371e-001</leafValues></_>
        <_>
          <internalNodes>
            0 -1 70 2.2879424504935741e-003</internalNodes>
          <leafValues>
            2.0258101820945740e-001 -3.4904025495052338e-002</leafValues></_>
        <_>
          <internalNodes>
            0 -1 69 4.1380703449249268e-002</internalNodes>
          <leafValues>
            -5.9993531554937363e-002 1.1363735049962997e-001</leafValues></_>
        <_>
          <internalNodes>
            0 -1 117 1.2548057362437248e-002</internalNodes>
          <leafValues>
            -1.0257944464683533e-001 7.4458703398704529e-002</leafValues></_>
        <_>
          <internalNodes>
            0 -1 117 2.2209396120160818e-003</internalNodes>
          <leafValues>
            2.3053516447544098e-001 -4.8223953694105148e-002</leafValues></_>
        <_>
          <internalNodes>
            0 -1 63 1.8972707039210945e-004</internalNodes>
          <leafValues>
            -4.7877085208892822e-001 1.4444550499320030e-002</leafValues></_>
        <_>
          <internalNodes>
            0 -1 132 2.0963206887245178e-001</internalNodes>
          <leafValues>
            6.4525953494012356e-003 -8.4717607498168945e-001</leafValues></_>
        <_>
          <internalNodes>
            0 -1 87 8.5189975798130035e-002</internalNodes>
          <leafValues>
            7.0570940151810646e-003 -7.3870033025741577e-001</leafValues></_>
        <_>
          <internalNodes>
            0 -1 92 2.1037262678146362e-001</internalNodes>
          <leafValues>
            -9.8239090293645859e-003 8.4973287582397461e-001</leafValues></_>
        <_>
          <internalNodes>
            0 -1 124 3.4162492956966162e-003</internalNodes>
          <leafValues>
            -1.5706519782543182e-001 4.2927317321300507e-002</leafValues></_>
        <_>
          <internalNodes>
            0 -1 109 1.1337834596633911e-001</internalNodes>
          <leafValues>
            -3.2079741358757019e-002 2.3529349267482758e-001</leafValues></_>
        <_>
          <internalNodes>
            0 -1 10 2.5122496299445629e-003</internalNodes>
          <leafValues>
            2.0828035473823547e-001 -4.6243812888860703e-002</leafValues></_>
        <_>
          <internalNodes>
            0 -1 78 2.1225616335868835e-001</internalNodes>
          <leafValues>
            1.0389094240963459e-002 -6.2134301662445068e-001</leafValues></_>
        <_>
          <internalNodes>
            0 -1 114 2.1242502331733704e-001</internalNodes>
          <leafValues>
            -1.8547380343079567e-002 4.3318912386894226e-001</leafValues></_>
        <_>
          <internalNodes>
            0 -1 38 1.2331156432628632e-001</internalNodes>
          <leafValues>
            9.5055978745222092e-003 -6.5602153539657593e-001</leafValues></_>
        <_>
          <internalNodes>
            0 -1 118 2.7902007102966309e-002</internalNodes>
          <leafValues>
            -7.6051093637943268e-002 9.2274233698844910e-002</leafValues></_>
        <_>
          <internalNodes>
            0 -1 10 1.9184233248233795e-001</internalNodes>
          <leafValues>
            9.2608714476227760e-003 -7.5910907983779907e-001</leafValues></_>
        <_>
          <internalNodes>
            0 -1 119 1.1492124758660793e-003</internalNodes>
          <leafValues>
            2.2685167193412781e-001 -2.9970018193125725e-002</leafValues></_>
        <_>
          <internalNodes>
            0 -1 26 1.6683933790773153e-003</internalNodes>
          <leafValues>
            2.0888297259807587e-001 -2.9418289661407471e-002</leafValues></_>
        <_>
          <internalNodes>
            0 -1 22 2.5617882609367371e-002</internalNodes>
          <leafValues>
            5.5400479584932327e-002 -1.2344866245985031e-001</leafValues></_>
        <_>
          <internalNodes>
            0 -1 93 4.9138034228235483e-004</internalNodes>
          <leafValues>
            -2.5989452004432678e-001 2.7608169242739677e-002</leafValues></_>
        <_>
          <internalNodes>
            0 -1 25 9.4657447189092636e-003</internalNodes>
          <leafValues>
            -9.9582187831401825e-002 7.8270770609378815e-002</leafValues></_>
        <_>
          <internalNodes>
            0 -1 77 8.9095473289489746e-002</internalNodes>
          <leafValues>
            -2.0224172621965408e-002 4.0731772780418396e-001</leafValues></_>
        <_>
          <internalNodes>
            0 -1 14 3.0931532382965088e-002</internalNodes>
          <leafValues>
            3.8039717823266983e-002 -2.2006994485855103e-001</leafValues></_>
        <_>
          <internalNodes>
            0 -1 5 1.9124986231327057e-001</internalNodes>
          <leafValues>
            8.3375768736004829e-003 -7.8675514459609985e-001</leafValues></_>
        <_>
          <internalNodes>
            0 -1 77 3.2012492418289185e-002</internalNodes>
          <leafValues>
            -4.8834525048732758e-002 1.6499237716197968e-001</leafValues></_>
        <_>
          <internalNodes>
            0 -1 114 1.4626234769821167e-002</internalNodes>
          <leafValues>
            8.5299544036388397e-002 -1.0440037399530411e-001</leafValues></_>
        <_>
          <internalNodes>
            0 -1 32 9.5568537712097168e-002</internalNodes>
          <leafValues>
            -3.0288349837064743e-002 2.3288145661354065e-001</leafValues></_>
        <_>
          <internalNodes>
            0 -1 16 1.4818841591477394e-003</internalNodes>
          <leafValues>
            -2.3067876696586609e-001 2.9894486069679260e-002</leafValues></_>
        <_>
          <internalNodes>
            0 -1 11 4.0444657206535339e-002</internalNodes>
          <leafValues>
            -4.4798698276281357e-002 1.7155884206295013e-001</leafValues></_>
        <_>
          <internalNodes>
            0 -1 42 1.8512085080146790e-002</internalNodes>
          <leafValues>
            -7.2130814194679260e-002 8.8824376463890076e-002</leafValues></_>
        <_>
          <internalNodes>
            0 -1 41 3.0725654214620590e-003</internalNodes>
          <leafValues>
            1.3136260211467743e-001 -5.5544558912515640e-002</leafValues></_>
        <_>
          <internalNodes>
            0 -1 103 5.8391317725181580e-003</internalNodes>
          <leafValues>
            -2.2935380041599274e-001 3.1273286789655685e-002</leafValues></_>
        <_>
          <internalNodes>
            0 -1 56 1.0327193140983582e-001</internalNodes>
          <leafValues>
            1.4984264038503170e-002 -3.7120559811592102e-001</leafValues></_>
        <_>
          <internalNodes>
            0 -1 139 3.6406628787517548e-002</internalNodes>
          <leafValues>
            5.3683668375015259e-002 -1.1222797632217407e-001</leafValues></_>
        <_>
          <internalNodes>
            0 -1 60 1.1048172414302826e-001</internalNodes>
          <leafValues>
            7.3447427712380886e-003 -8.3942490816116333e-001</leafValues></_>
        <_>
          <internalNodes>
            0 -1 75 1.0999321192502975e-001</internalNodes>
          <leafValues>
            5.0693089142441750e-003 -8.0229473114013672e-001</leafValues></_>
        <_>
          <internalNodes>
            0 -1 12 9.7606346011161804e-002</internalNodes>
          <leafValues>
            -1.6799928620457649e-002 5.3017890453338623e-001</leafValues></_>
        <_>
          <internalNodes>
            0 -1 141 4.6112546697258949e-003</internalNodes>
          <leafValues>
            1.3017895817756653e-001 -4.6969689428806305e-002</leafValues></_>
        <_>
          <internalNodes>
            0 -1 120 1.1343754827976227e-001</internalNodes>
          <leafValues>
            1.4002918265759945e-002 -5.2680009603500366e-001</leafValues></_>
        <_>
          <internalNodes>
            0 -1 67 7.9260654747486115e-003</internalNodes>
          <leafValues>
            -1.7019608616828918e-001 4.2518123984336853e-002</leafValues></_>
        <_>
          <internalNodes>
            0 -1 137 9.7023740410804749e-002</internalNodes>
          <leafValues>
            8.4789972752332687e-003 -7.1837705373764038e-001</leafValues></_>
        <_>
          <internalNodes>
            0 -1 7 1.1180553585290909e-001</internalNodes>
          <leafValues>
            -1.7042074352502823e-002 4.2731040716171265e-001</leafValues></_>
        <_>
          <internalNodes>
            0 -1 39 2.8588512912392616e-002</internalNodes>
          <leafValues>
            -4.4376183301210403e-002 1.3421525061130524e-001</leafValues></_>
        <_>
          <internalNodes>
            0 -1 112 3.0128093436360359e-002</internalNodes>
          <leafValues>
            5.1780432462692261e-002 -1.3805550336837769e-001</leafValues></_>
        <_>
          <internalNodes>
            0 -1 116 1.1863542720675468e-002</internalNodes>
          <leafValues>
            9.4986684620380402e-002 -7.5857162475585938e-002</leafValues></_>
        <_>
          <internalNodes>
            0 -1 74 4.2061660438776016e-002</internalNodes>
          <leafValues>
            2.7663126587867737e-002 -2.3787485063076019e-001</leafValues></_>
        <_>
          <internalNodes>
            0 -1 101 2.2236234508454800e-004</internalNodes>
          <leafValues>
            -3.5406261682510376e-001 1.7595821991562843e-002</leafValues></_>
        <_>
          <internalNodes>
            0 -1 63 1.1158123612403870e-001</internalNodes>
          <leafValues>
            7.7285715378820896e-003 -7.4374771118164063e-001</leafValues></_>
        <_>
          <internalNodes>
            0 -1 81 6.4200341701507568e-002</internalNodes>
          <leafValues>
            -2.9124759137630463e-002 2.2151316702365875e-001</leafValues></_>
        <_>
          <internalNodes>
            0 -1 17 2.4102258682250977e-001</internalNodes>
          <leafValues>
            6.7364326678216457e-003 -1.</leafValues></_>
        <_>
          <internalNodes>
            0 -1 127 2.3500972986221313e-001</internalNodes>
          <leafValues>
            5.7096662931144238e-003 -6.6261273622512817e-001</leafValues></_>
        <_>
          <internalNodes>
            0 -1 127 1.4351987838745117e-001</internalNodes>
          <leafValues>
            -2.2454423829913139e-002 3.1347608566284180e-001</leafValues></_>
        <_>
          <internalNodes>
            0 -1 5 1.3548690825700760e-002</internalNodes>
          <leafValues>
            -7.5527526438236237e-002 8.5416093468666077e-002</leafValues></_>
        <_>
          <internalNodes>
            0 -1 17 8.0183342099189758e-002</internalNodes>
          <leafValues>
            -2.9514636844396591e-002 2.1225601434707642e-001</leafValues></_>
        <_>
          <internalNodes>
            0 -1 52 1.6337666660547256e-002</internalNodes>
          <leafValues>
            7.0885963737964630e-002 -8.8513053953647614e-002</leafValues></_>
        <_>
          <internalNodes>
            0 -1 23 1.4512895047664642e-001</internalNodes>
          <leafValues>
            8.6055174469947815e-003 -6.8016719818115234e-001</leafValues></_>
        <_>
          <internalNodes>
            0 -1 19 2.9552830383181572e-003</internalNodes>
          <leafValues>
            1.6942846775054932e-001 -3.9824888110160828e-002</leafValues></_>
        <_>
          <internalNodes>
            0 -1 42 2.7795493602752686e-001</internalNodes>
          <leafValues>
            6.0137039981782436e-003 -9.7862452268600464e-001</leafValues></_>
        <_>
          <internalNodes>
            0 -1 100 1.9524139165878296e-001</internalNodes>
          <leafValues>
            4.0783290751278400e-003 -8.8744395971298218e-001</leafValues></_>
        <_>
          <internalNodes>
            0 -1 64 1.7493304610252380e-001</internalNodes>
          <leafValues>
            -1.3336524367332458e-002 5.7950747013092041e-001</leafValues></_>
        <_>
          <internalNodes>
            0 -1 27 2.6405652984976768e-002</internalNodes>
          <leafValues>
            5.6614935398101807e-002 -1.0789968073368073e-001</leafValues></_>
        <_>
          <internalNodes>
            0 -1 55 1.8442846834659576e-002</internalNodes>
          <leafValues>
            -8.7051860988140106e-002 8.4560923278331757e-002</leafValues></_>
        <_>
          <internalNodes>
            0 -1 119 5.8389352634549141e-003</internalNodes>
          <leafValues>
            1.2003242224454880e-001 -5.3035959601402283e-002</leafValues></_>
        <_>
          <internalNodes>
            0 -1 84 2.0236533600836992e-004</internalNodes>
          <leafValues>
            -3.6769142746925354e-001 1.9900714978575706e-002</leafValues></_>
        <_>
          <internalNodes>
            0 -1 55 2.7335754036903381e-001</internalNodes>
          <leafValues>
            4.5328326523303986e-003 -9.6416956186294556e-001</leafValues></_>
        <_>
          <internalNodes>
            0 -1 98 1.3113173842430115e-001</internalNodes>
          <leafValues>
            8.1470729783177376e-003 -5.4173934459686279e-001</leafValues></_>
        <_>
          <internalNodes>
            0 -1 122 5.1125409081578255e-003</internalNodes>
          <leafValues>
            1.2742918729782104e-001 -5.0241928547620773e-002</leafValues></_>
        <_>
          <internalNodes>
            0 -1 58 1.4985320158302784e-002</internalNodes>
          <leafValues>
            7.4113242328166962e-002 -8.3392970263957977e-002</leafValues></_>
        <_>
          <internalNodes>
            0 -1 75 2.0309674437157810e-004</internalNodes>
          <leafValues>
            -2.3241451382637024e-001 2.7167294174432755e-002</leafValues></_>
        <_>
          <internalNodes>
            0 -1 107 1.1082416400313377e-002</internalNodes>
          <leafValues>
            -1.1070312559604645e-001 5.5803857743740082e-002</leafValues></_></weakClassifiers></_>
    <!-- stage 5 -->
    <_>
      <maxWeakCount>281</maxWeakCount>
      <stageThreshold>-1.6508816480636597e+000</stageThreshold>
      <weakClassifiers>
        <_>
          <internalNodes>
            0 -1 96 1.3478288054466248e-001</internalNodes>
          <leafValues>
            -5.0944912433624268e-001 6.4638786017894745e-002</leafValues></_>
        <_>
          <internalNodes>
            0 -1 109 9.3152686953544617e-002</internalNodes>
          <leafValues>
            -1.3310651481151581e-001 3.5825031995773315e-001</leafValues></_>
        <_>
          <internalNodes>
            0 -1 105 4.6302802860736847e-002</internalNodes>
          <leafValues>
            -1.4067789912223816e-001 2.5700226426124573e-001</leafValues></_>
        <_>
          <internalNodes>
            0 -1 95 1.3706713914871216e-001</internalNodes>
          <leafValues>
            -4.2047116905450821e-002 5.1451706886291504e-001</leafValues></_>
        <_>
          <internalNodes>
            0 -1 112 8.2878796383738518e-003</internalNodes>
          <leafValues>
            1.8422867357730865e-001 -1.4198286831378937e-001</leafValues></_>
        <_>
          <internalNodes>
            0 -1 55 1.0012008249759674e-001</internalNodes>
          <leafValues>
            -5.2369259297847748e-002 3.2509693503379822e-001</leafValues></_>
        <_>
          <internalNodes>
            0 -1 3 3.0504681635648012e-003</internalNodes>
          <leafValues>
            -2.2167736291885376e-001 7.6951920986175537e-002</leafValues></_>
        <_>
          <internalNodes>
            0 -1 56 8.6691454052925110e-002</internalNodes>
          <leafValues>
            4.3417561799287796e-002 -4.6524468064308167e-001</leafValues></_>
        <_>
          <internalNodes>
            0 -1 35 2.6022441685199738e-002</internalNodes>
          <leafValues>
            9.2056646943092346e-002 -1.5397307276725769e-001</leafValues></_>
        <_>
          <internalNodes>
            0 -1 21 7.2321936488151550e-002</internalNodes>
          <leafValues>
            2.1681949496269226e-002 -4.6939018368721008e-001</leafValues></_>
        <_>
          <internalNodes>
            0 -1 84 4.8345783725380898e-003</internalNodes>
          <leafValues>
            -2.0085108280181885e-001 7.7042937278747559e-002</leafValues></_>
        <_>
          <internalNodes>
            0 -1 138 6.8680299445986748e-003</internalNodes>
          <leafValues>
            -1.8127149343490601e-001 8.4781840443611145e-002</leafValues></_>
        <_>
          <internalNodes>
            0 -1 7 1.5337977674789727e-004</internalNodes>
          <leafValues>
            -5.5565828084945679e-001 1.8284106627106667e-002</leafValues></_>
        <_>
          <internalNodes>
            0 -1 45 7.3142096400260925e-002</internalNodes>
          <leafValues>
            -3.6908332258462906e-002 3.7370982766151428e-001</leafValues></_>
        <_>
          <internalNodes>
            0 -1 36 1.2593360152095556e-003</internalNodes>
          <leafValues>
            2.7567476034164429e-001 -4.4500343501567841e-002</leafValues></_>
        <_>
          <internalNodes>
            0 -1 80 7.4200719594955444e-002</internalNodes>
          <leafValues>
            -4.8122975975275040e-002 2.5948405265808105e-001</leafValues></_>
        <_>
          <internalNodes>
            0 -1 121 5.4361838847398758e-003</internalNodes>
          <leafValues>
            -2.5035092234611511e-001 4.2276311665773392e-002</leafValues></_>
        <_>
          <internalNodes>
            0 -1 143 1.3783572241663933e-002</internalNodes>
          <leafValues>
            -1.3849945366382599e-001 8.0487057566642761e-002</leafValues></_>
        <_>
          <internalNodes>
            0 -1 127 7.1322962641716003e-002</internalNodes>
          <leafValues>
            -5.5407714098691940e-002 2.4175018072128296e-001</leafValues></_>
        <_>
          <internalNodes>
            0 -1 113 9.2111669480800629e-002</internalNodes>
          <leafValues>
            -4.3317534029483795e-002 3.2592260837554932e-001</leafValues></_>
        <_>
          <internalNodes>
            0 -1 16 1.0043857991695404e-001</internalNodes>
          <leafValues>
            -2.5978116318583488e-002 4.8612710833549500e-001</leafValues></_>
        <_>
          <internalNodes>
            0 -1 81 4.8506751656532288e-002</internalNodes>
          <leafValues>
            -4.7731094062328339e-002 2.1440012753009796e-001</leafValues></_>
        <_>
          <internalNodes>
            0 -1 114 9.6992485225200653e-002</internalNodes>
          <leafValues>
            -5.3468041121959686e-002 2.1319618821144104e-001</leafValues></_>
        <_>
          <internalNodes>
            0 -1 52 2.1198339760303497e-002</internalNodes>
          <leafValues>
            8.3783686161041260e-002 -1.5410254895687103e-001</leafValues></_>
        <_>
          <internalNodes>
            0 -1 134 3.9697080850601196e-002</internalNodes>
          <leafValues>
            -6.9199562072753906e-002 1.7039816081523895e-001</leafValues></_>
        <_>
          <internalNodes>
            0 -1 57 2.6516566867940128e-004</internalNodes>
          <leafValues>
            -4.0795794129371643e-001 2.3151025176048279e-002</leafValues></_>
        <_>
          <internalNodes>
            0 -1 34 7.7920064330101013e-002</internalNodes>
          <leafValues>
            -3.2948479056358337e-002 3.2199454307556152e-001</leafValues></_>
        <_>
          <internalNodes>
            0 -1 46 9.3815192580223083e-002</internalNodes>
          <leafValues>
            -5.1572520285844803e-002 2.2144390642642975e-001</leafValues></_>
        <_>
          <internalNodes>
            0 -1 123 8.3905048668384552e-003</internalNodes>
          <leafValues>
            -1.3429234921932220e-001 7.8894771635532379e-002</leafValues></_>
        <_>
          <internalNodes>
            0 -1 62 1.1287593841552734e-001</internalNodes>
          <leafValues>
            -2.7845636010169983e-002 3.3578258752822876e-001</leafValues></_>
        <_>
          <internalNodes>
            0 -1 87 3.8422133773565292e-002</internalNodes>
          <leafValues>
            3.0854243785142899e-002 -3.3737975358963013e-001</leafValues></_>
        <_>
          <internalNodes>
            0 -1 44 1.3919335603713989e-001</internalNodes>
          <leafValues>
            9.4765676185488701e-003 -7.9317855834960938e-001</leafValues></_>
        <_>
          <internalNodes>
            0 -1 136 7.6673328876495361e-002</internalNodes>
          <leafValues>
            1.1698572896420956e-002 -5.9613478183746338e-001</leafValues></_>
        <_>
          <internalNodes>
            0 -1 120 3.1395233236253262e-004</internalNodes>
          <leafValues>
            -5.1207083463668823e-001 1.4585398137569427e-002</leafValues></_>
        <_>
          <internalNodes>
            0 -1 86 7.6731160283088684e-002</internalNodes>
          <leafValues>
            6.5294499509036541e-003 -8.7870228290557861e-001</leafValues></_>
        <_>
          <internalNodes>
            0 -1 130 1.2497751414775848e-001</internalNodes>
          <leafValues>
            7.6257283799350262e-003 -7.7005112171173096e-001</leafValues></_>
        <_>
          <internalNodes>
            0 -1 129 4.5687451958656311e-002</internalNodes>
          <leafValues>
            -3.8146037608385086e-002 2.4435597658157349e-001</leafValues></_>
        <_>
          <internalNodes>
            0 -1 94 1.2450199574232101e-002</internalNodes>
          <leafValues>
            1.0089354962110519e-001 -9.5428496599197388e-002</leafValues></_>
        <_>
          <internalNodes>
            0 -1 5 2.4736963212490082e-002</internalNodes>
          <leafValues>
            -7.3051743209362030e-002 1.4996546506881714e-001</leafValues></_>
        <_>
          <internalNodes>
            0 -1 4 5.0984457135200500e-002</internalNodes>
          <leafValues>
            3.8105186074972153e-002 -2.7466353774070740e-001</leafValues></_>
        <_>
          <internalNodes>
            0 -1 98 1.5485238283872604e-002</internalNodes>
          <leafValues>
            9.3394488096237183e-002 -1.1257296800613403e-001</leafValues></_>
        <_>
          <internalNodes>
            0 -1 142 9.2112690210342407e-002</internalNodes>
          <leafValues>
            1.2987861409783363e-002 -6.0298860073089600e-001</leafValues></_>
        <_>
          <internalNodes>
            0 -1 25 1.9898138940334320e-002</internalNodes>
          <leafValues>
            -6.9704011082649231e-002 1.1704910546541214e-001</leafValues></_>
        <_>
          <internalNodes>
            0 -1 60 5.2604671567678452e-002</internalNodes>
          <leafValues>
            2.2992577403783798e-002 -3.6491289734840393e-001</leafValues></_>
        <_>
          <internalNodes>
            0 -1 36 8.9202448725700378e-002</internalNodes>
          <leafValues>
            1.2257697992026806e-002 -5.5343174934387207e-001</leafValues></_>
        <_>
          <internalNodes>
            0 -1 51 1.2326899915933609e-002</internalNodes>
          <leafValues>
            9.3330323696136475e-002 -8.3910338580608368e-002</leafValues></_>
        <_>
          <internalNodes>
            0 -1 69 3.9934758096933365e-002</internalNodes>
          <leafValues>
            -8.0186754465103149e-002 1.3304126262664795e-001</leafValues></_>
        <_>
          <internalNodes>
            0 -1 89 7.3186427354812622e-002</internalNodes>
          <leafValues>
            -3.3429428935050964e-002 2.3397970199584961e-001</leafValues></_>
        <_>
          <internalNodes>
            0 -1 35 1.3150900602340698e-001</internalNodes>
          <leafValues>
            1.2344860471785069e-002 -7.2775602340698242e-001</leafValues></_>
        <_>
          <internalNodes>
            0 -1 65 7.4253357946872711e-002</internalNodes>
          <leafValues>
            1.6734018921852112e-002 -3.9623796939849854e-001</leafValues></_>
        <_>
          <internalNodes>
            0 -1 100 2.3806352168321609e-002</internalNodes>
          <leafValues>
            -8.0213516950607300e-002 1.1103995144367218e-001</leafValues></_>
        <_>
          <internalNodes>
            0 -1 81 4.1881473734974861e-003</internalNodes>
          <leafValues>
            1.5922243893146515e-001 -5.2797645330429077e-002</leafValues></_>
        <_>
          <internalNodes>
            0 -1 17 1.1013876646757126e-002</internalNodes>
          <leafValues>
            -1.5050715208053589e-001 6.6453151404857635e-002</leafValues></_>
        <_>
          <internalNodes>
            0 -1 139 3.3770449459552765e-002</internalNodes>
          <leafValues>
            6.6227383911609650e-002 -1.1874365806579590e-001</leafValues></_>
        <_>
          <internalNodes>
            0 -1 12 6.2440797686576843e-002</internalNodes>
          <leafValues>
