<?xml version="1.0"?>
<opencv_storage>
<cascade>
  <stageType>BOOST</stageType>
  <featureType>LBP</featureType>
  <height>20</height>
  <width>20</width>
  <stageParams>
    <boostType>GAB</boostType>
    <minHitRate>9.9900001287460327e-001</minHitRate>
    <maxFalseAlarm>5.0000000000000000e-001</maxFalseAlarm>
    <weightTrimRate>9.4999999999999996e-001</weightTrimRate>
    <maxDepth>1</maxDepth>
    <maxWeakCount>100</maxWeakCount></stageParams>
  <featureParams>
    <maxCatCount>256</maxCatCount>
    <featSize>1</featSize></featureParams>
  <stageNum>23</stageNum>
  <stages>
    <!-- stage 0 -->
    <_>
      <maxWeakCount>9</maxWeakCount>
      <stageThreshold>-1.9553934335708618e+000</stageThreshold>
      <weakClassifiers>
        <_>
          <internalNodes>
            0 -1 148 -139210518 -148667990 -744291805 -11272367
            -223166326 -213148117 -225707777 -33</internalNodes>
          <leafValues>
            -7.6221954822540283e-001 3.7252074480056763e-001</leafValues></_>
        <_>
          <internalNodes>
            0 -1 284 -1564540865 -1897512598 -119644933 2027647189
            -1428551666 -1612721909 -672465158 -89464321</internalNodes>
          <leafValues>
            -6.2824952602386475e-001 3.2955181598663330e-001</leafValues></_>
        <_>
          <internalNodes>
            0 -1 18 -776735513 -6059094 1862233650 1937750963 1442922642
            789526514 41091131 -2065</internalNodes>
          <leafValues>
            -4.1403010487556458e-001 4.8103618621826172e-001</leafValues></_>
        <_>
          <internalNodes>
            0 -1 321 -1936847225 -1970376558 -594379627 -16784368
            -1142911794 -292282291 -755452969 -626334721</internalNodes>
          <leafValues>
            -4.1204103827476501e-001 4.3409591913223267e-001</leafValues></_>
        <_>
          <internalNodes>
            0 -1 311 -132344438 -105775216 -1300290248 2132114805
            1714375818 -1078011906 1020812730 -37926977</internalNodes>
          <leafValues>
            -3.6981913447380066e-001 4.1004827618598938e-001</leafValues></_>
        <_>
          <internalNodes>
            0 -1 176 -2033578462 -2038415332 -1835085477 605290966
            -101822864 -1384498670 -1697715730 -90517029</internalNodes>
          <leafValues>
            -4.5495334267616272e-001 3.5123804211616516e-001</leafValues></_>
        <_>
          <internalNodes>
            0 -1 258 -1402272688 -1500638354 -355568386 -130144890
            -1431861244 -1888957695 -1685429548 -1091121040</internalNodes>
          <leafValues>
            -5.4050529003143311e-001 2.4671091139316559e-001</leafValues></_>
        <_>
          <internalNodes>
            0 -1 301 1336799946 992863202 -408972064 2145213939
            1778605262 722034715 2059258050 -588022157</internalNodes>
          <leafValues>
            -3.7882837653160095e-001 3.6482584476470947e-001</leafValues></_>
        <_>
          <internalNodes>
            0 -1 122 -208558701 1932207472 -1476450766 1004349235
            375554986 -1091096712 -2106185329 930608079</internalNodes>
          <leafValues>
            -2.9870483279228210e-001 4.3816936016082764e-001</leafValues></_></weakClassifiers></_>
    <!-- stage 1 -->
    <_>
      <maxWeakCount>14</maxWeakCount>
      <stageThreshold>-2.1421654224395752e+000</stageThreshold>
      <weakClassifiers>
        <_>
          <internalNodes>
            0 -1 152 -216993558 -135946846 -23131613 -2099887 -23019350
            -7744125 -225449281 -33</internalNodes>
          <leafValues>
            -7.5875395536422729e-001 1.3839930295944214e-001</leafValues></_>
        <_>
          <internalNodes>
            0 -1 14 -2894593 -1349518358 -91885472 -559231 503727328
            260827526 1384583691 -268435493</internalNodes>
          <leafValues>
            -5.0366705656051636e-001 3.2260647416114807e-001</leafValues></_>
        <_>
          <internalNodes>
            0 -1 199 1438241954 2000360366 -1652413150 -7652525
            1554730123 530265831 -324539254 2009030491</internalNodes>
          <leafValues>
            -4.2150437831878662e-001 3.3198410272598267e-001</leafValues></_>
        <_>
          <internalNodes>
            0 -1 115 -1749815072 1000808866 853238288 938949523
            1862419082 803172430 -427685749 861925755</internalNodes>
          <leafValues>
            -4.3133854866027832e-001 2.8319194912910461e-001</leafValues></_>
        <_>
          <internalNodes>
            0 -1 221 579928112 -1930621890 -1408049475 1784160507
            -24487336 -16289277 -1163204454 -1665466369</internalNodes>
          <leafValues>
            -4.6125406026840210e-001 2.9043996334075928e-001</leafValues></_>
        <_>
          <internalNodes>
            0 -1 310 -556804918 -617406566 -1210113248 -1145367048
            1850691114 1587542735 1522106178 -1548791265</internalNodes>
          <leafValues>
            -3.8458451628684998e-001 2.8612172603607178e-001</leafValues></_>
        <_>
          <internalNodes>
            0 -1 318 -1393879910 -1499049142 -53281294 -667196480
            -354474938 -1013758933 -1312140558 -139289346</internalNodes>
          <leafValues>
            -4.0821662545204163e-001 2.8315192461013794e-001</leafValues></_>
        <_>
          <internalNodes>
            0 -1 65 -1221096661 495159192 2007240130 932959571 588473247
            455807523 2134531919 -8389837</internalNodes>
          <leafValues>
            -3.2353344559669495e-001 3.3291026949882507e-001</leafValues></_>
        <_>
          <internalNodes>
            0 -1 145 1374966245 126812490 885468450 -1851002895
            1108225160 1300492961 -1298449254 1939600208</internalNodes>
          <leafValues>
            -3.8054651021957397e-001 2.5635102391242981e-001</leafValues></_>
        <_>
          <internalNodes>
            0 -1 354 -1429262790 782657694 -189202562 450810884
            1740387912 -29327142 -847084624 -1162336784</internalNodes>
          <leafValues>
            -5.1212894916534424e-001 2.0050925016403198e-001</leafValues></_>
        <_>
          <internalNodes>
            0 -1 132 -510623696 1914994993 -760726256 -674014735
            2067800706 -206323629 -1868074305 1667587679</internalNodes>
          <leafValues>
            -4.2536735534667969e-001 2.2261188924312592e-001</leafValues></_>
        <_>
          <internalNodes>
            0 -1 331 -1563737067 -1605447774 -532914731 -1971423794
            -1449207211 -1704736079 -203754128 -420038688</internalNodes>
          <leafValues>
            -4.4911500811576843e-001 2.0597170293331146e-001</leafValues></_>
        <_>
          <internalNodes>
            0 -1 348 1423743114 -1640827439 -150337640 2010148948
            1390877207 -8062840 441807519 767065878</internalNodes>
          <leafValues>
            -4.1366121172904968e-001 2.3639412224292755e-001</leafValues></_>
        <_>
          <internalNodes>
            0 -1 249 -1460466597 -1343327666 -431518653 984638939
            -1195489192 -1892999091 498792502 -1170669572</internalNodes>
          <leafValues>
            -4.5987352728843689e-001 2.0529416203498840e-001</leafValues></_></weakClassifiers></_>
    <!-- stage 2 -->
    <_>
      <maxWeakCount>19</maxWeakCount>
      <stageThreshold>-2.1495301723480225e+000</stageThreshold>
      <weakClassifiers>
        <_>
          <internalNodes>
            0 -1 268 -4596501 -26198 -141485 -3146895 -56899441
            -25429357 -5530193 -2105377</internalNodes>
          <leafValues>
            -6.5803420543670654e-001 2.9064533114433289e-001</leafValues></_>
        <_>
          <internalNodes>
            0 -1 289 -1360900902 -1349893586 -52791047 -218432580
            -1209100660 -1214091110 -226300005 -16855041</internalNodes>
          <leafValues>
            -4.7304964065551758e-001 2.5749745965003967e-001</leafValues></_>
        <_>
          <internalNodes>
            0 -1 28 1374942438 -139918934 -405558752 1393530647
            1375731904 1024099376 1110138941 1476394855</internalNodes>
          <leafValues>
            -4.5243000984191895e-001 2.6697486639022827e-001</leafValues></_>
        <_>
          <internalNodes>
            0 -1 224 -1371142503 -1411037462 -577250125 -233152170
            -1075145700 -68141045 -1094779909 -17133315</internalNodes>
          <leafValues>
            -3.6680945754051208e-001 2.8855696320533752e-001</leafValues></_>
        <_>
          <internalNodes>
            0 -1 34 -147722127 262504618 948117539 803150011 1459798018
            1871653255 -1030269173 668333015</internalNodes>
          <leafValues>
            -3.3952894806861877e-001 2.9228925704956055e-001</leafValues></_>
        <_>
          <internalNodes>
            0 -1 338 -1397813625 -1366898196 -556443338 -755629416
            -1112065458 -208082646 -258557322 -220529817</internalNodes>
          <leafValues>
            -4.2612850666046143e-001 2.4149602651596069e-001</leafValues></_>
        <_>
          <internalNodes>
            0 -1 307 -232206165 1493805992 -2081720717 -9077275
            1587697834 -1342242819 784299387 -625508707</internalNodes>
          <leafValues>
            -2.7558490633964539e-001 3.3831354975700378e-001</leafValues></_>
        <_>
          <internalNodes>
            0 -1 80 1959721586 858476967 -804012862 1407179695
            1191728834 105654385 -1306826610 2140404595</internalNodes>
          <leafValues>
            -3.3573329448699951e-001 2.6413086056709290e-001</leafValues></_>
        <_>
          <internalNodes>
            0 -1 218 168233994 -1574547342 -222275950 1213886680
            -1608886188 -373723093 -1564807020 -17629575</internalNodes>
          <leafValues>
            -4.9367547035217285e-001 1.9193482398986816e-001</leafValues></_>
        <_>
          <internalNodes>
            0 -1 59 -412047086 -141321950 -162449150 -604514831
            -1354581581 -1157371750 1906565567 1734865559</internalNodes>
          <leafValues>
            -3.1898733973503113e-001 2.9852494597434998e-001</leafValues></_>
        <_>
          <internalNodes>
            0 -1 255 -1532362192 797865578 -1337409281 942333909
            -1357141494 -1440069589 -91559704 -1159538256</internalNodes>
          <leafValues>
            -4.5847654342651367e-001 1.8869808316230774e-001</leafValues></_>
        <_>
          <internalNodes>
            0 -1 171 -710291201 967786043 1890547509 981417917
            -1075621944 -815845518 307561891 -1488584873</internalNodes>
          <leafValues>
            -2.3772017657756805e-001 3.9684560894966125e-001</leafValues></_>
        <_>
          <internalNodes>
            0 -1 303 2078996220 170520523 -120491272 1808784851
            2125356623 517134523 -1131464105 -322446349</internalNodes>
          <leafValues>
            -3.3951088786125183e-001 2.6823735237121582e-001</leafValues></_>
        <_>
          <internalNodes>
            0 -1 368 1542193024 -32790 -1342181400 2105506675 2012937919
            -1090650241 -67274761 -1162143875</internalNodes>
          <leafValues>
            -2.6341676712036133e-001 3.4892261028289795e-001</leafValues></_>
        <_>
          <internalNodes>
            0 -1 360 -1564799474 247333938 -1641064098 -94737708
            -1329981233 -1290026598 -92653145 -17122324</internalNodes>
          <leafValues>
            -3.4736010432243347e-001 2.5552126765251160e-001</leafValues></_>
        <_>
          <internalNodes>
            0 -1 217 -753873968 1393693569 -732746714 2079672593
            1519391745 -1230446359 -125534341 529879935</internalNodes>
          <leafValues>
            -3.7114998698234558e-001 2.4220776557922363e-001</leafValues></_>
        <_>
          <internalNodes>
            0 -1 56 621004579 386024835 291444163 135205201 958596611
            -342138361 101147262 725040439</internalNodes>
          <leafValues>
            -4.6458801627159119e-001 1.9823217391967773e-001</leafValues></_>
        <_>
          <internalNodes>
            0 -1 312 -1363209214 244191714 -594022240 -2138409764
            2060649554 -2066749413 1540272980 -1130186496</internalNodes>
          <leafValues>
            -5.7349592447280884e-001 1.3913007080554962e-001</leafValues></_>
        <_>
          <internalNodes>
            0 -1 7 -538576622 -1144032928 -2000317120 -1975531242
            587748808 -2071655032 138643596 156464483</internalNodes>
          <leafValues>
            -3.2336738705635071e-001 2.6235845685005188e-001</leafValues></_></weakClassifiers></_>
    <!-- stage 3 -->
    <_>
      <maxWeakCount>22</maxWeakCount>
      <stageThreshold>-2.0698957443237305e+000</stageThreshold>
      <weakClassifiers>
        <_>
          <internalNodes>
            0 -1 240 -664321 -170410568 -436505775 -1090223 -558251861
            -341058149 -224658433 -5255169</internalNodes>
          <leafValues>
            -6.4097422361373901e-001 1.9525457918643951e-001</leafValues></_>
        <_>
          <internalNodes>
            0 -1 155 1353601262 1596624270 -335202654 2145115619
            -1375253366 1502326400 -1073800245 -178266555</internalNodes>
          <leafValues>
            -4.7917583584785461e-001 1.8792678415775299e-001</leafValues></_>
        <_>
          <internalNodes>
            0 -1 10 2142761152 -1895205902 -1664854960 -1164223742
            2131903104 529267243 310657034 192395167</internalNodes>
          <leafValues>
            -4.4212472438812256e-001 2.1176593005657196e-001</leafValues></_>
        <_>
          <internalNodes>
            0 -1 315 -2098246054 -1494582866 -562566949 -93396738
            -83925950 -348140914 -555028334 -89983110</internalNodes>
          <leafValues>
            -3.9933633804321289e-001 2.1855013072490692e-001</leafValues></_>
        <_>
          <internalNodes>
            0 -1 323 -2002123748 -1402313342 2060440307 -84233792
            -805645612 -1548336741 -85300249 -218976273</internalNodes>
          <leafValues>
            -3.5195618867874146e-001 2.4703072011470795e-001</leafValues></_>
        <_>
          <internalNodes>
            0 -1 235 1351652515 -777670390 668403017 -573343115
            545800195 266599066 -1632828141 1872960845</internalNodes>
          <leafValues>
            -3.3618226647377014e-001 2.5436607003211975e-001</leafValues></_>
        <_>
          <internalNodes>
            0 -1 374 730270850 579588205 -715433982 -487204629
            1887664095 1877469319 -21284365 -103455771</internalNodes>
          <leafValues>
            -3.8441687822341919e-001 2.0973961055278778e-001</leafValues></_>
        <_>
          <internalNodes>
            0 -1 196 2008699130 -1087701126 -688589 -1075216410
            2103180940 1073201149 -294076518 -799409063</internalNodes>
          <leafValues>
            -2.6116743683815002e-001 3.1555363535881042e-001</leafValues></_>
        <_>
          <internalNodes>
            0 -1 95 -801986784 1945174978 213817906 -1114137295
            2046976035 1698920587 -523102413 2004015923</internalNodes>
          <leafValues>
            -4.8910674452781677e-001 1.5893818438053131e-001</leafValues></_>
        <_>
          <internalNodes>
            0 -1 245 -1133630441 -1396038526 -165523272 1247444462
            -57964463 1073369097 -218455392 -96807277</internalNodes>
          <leafValues>
            -4.0140342712402344e-001 2.0889501273632050e-001</leafValues></_>
        <_>
          <internalNodes>
            0 -1 69 -806450921 1206910975 -176275661 1064828734
            -687918165 1465384799 1475829759 1400373111</internalNodes>
          <leafValues>
            -2.7053818106651306e-001 2.9602840542793274e-001</leafValues></_>
        <_>
          <internalNodes>
            0 -1 258 207226963 -1887305242 -795608450 -50921066
            -1595203372 -1951743983 -610606082 -88673025</internalNodes>
          <leafValues>
            -3.5374212265014648e-001 2.2124008834362030e-001</leafValues></_>
        <_>
          <internalNodes>
            0 -1 21 2100557287 2145894314 1995927315 1073706811
            -570175870 -1351159901 -2143036598 259126739</internalNodes>
          <leafValues>
            -2.3443409800529480e-001 3.4416088461875916e-001</leafValues></_>
        <_>
          <internalNodes>
            0 -1 179 150798610 147486750 -2000396422 -2003900582
            -1725818876 -976008421 -1161104396 -361571115</internalNodes>
          <leafValues>
            -4.6914029121398926e-001 1.6563716530799866e-001</leafValues></_>
        <_>
          <internalNodes>
            0 -1 299 2008669928 -15926358 -254521056 -269540521
            418601038 800737515 -1966581245 1761049567</internalNodes>
          <leafValues>
            -3.4728595614433289e-001 2.1324017643928528e-001</leafValues></_>
        <_>
          <internalNodes>
            0 -1 287 -1988045669 -2090111376 -1749213597 -270663755
            1064918699 -1082228769 -1090773061 888438599</internalNodes>
          <leafValues>
            -2.5844073295593262e-001 3.0890667438507080e-001</leafValues></_>
        <_>
          <internalNodes>
            0 -1 405 677392160 713640299 -1386620945 -1365597804
            999783345 2007055033 -108104719 -1342751884</internalNodes>
          <leafValues>
            -4.1287061572074890e-001 1.7689566314220428e-001</leafValues></_>
        <_>
          <internalNodes>
            0 -1 163 -139472473 1002930410 -120248376 113455177
            1469275659 1796821107 686275515 363846467</internalNodes>
          <leafValues>
            -2.6828166842460632e-001 2.8098243474960327e-001</leafValues></_>
        <_>
          <internalNodes>
            0 -1 226 -77014005 -1645568288 883856897 -1407233067
            1030026778 -1165836142 1782587019 1313894909</internalNodes>
          <leafValues>
            -2.9071858525276184e-001 2.5103941559791565e-001</leafValues></_>
        <_>
          <internalNodes>
            0 -1 334 -1496359398 648678278 -1150101141 1115558018
            -20201057 -343244798 -455085674 -1234207063</internalNodes>
          <leafValues>
            -3.2756969332695007e-001 2.3990954458713531e-001</leafValues></_>
        <_>
          <internalNodes>
            0 -1 185 -1040717022 -1288326821 1212300338 -980330169
            1218672384 856033674 -1971119427 1132977599</internalNodes>
          <leafValues>
            -3.7345835566520691e-001 2.0378200709819794e-001</leafValues></_>
        <_>
          <internalNodes>
            0 -1 420 241000196 1448909599 1591241220 248379255 416854994
            1217306698 -948256788 -29918882</internalNodes>
          <leafValues>
            -3.2322075963020325e-001 2.4074235558509827e-001</leafValues></_></weakClassifiers></_>
    <!-- stage 4 -->
    <_>
      <maxWeakCount>25</maxWeakCount>
      <stageThreshold>-2.1628556251525879e+000</stageThreshold>
      <weakClassifiers>
        <_>
          <internalNodes>
            0 -1 154 -201850921 -2120816 -1641296803 -1058319 -28263750
            -288367965 -223282257 -117441841</internalNodes>
          <leafValues>
            -6.3323199748992920e-001 1.1737088859081268e-001</leafValues></_>
        <_>
          <internalNodes>
            0 -1 111 -677149526 -10540150 1028730122 -7365155 -904690525
            2037349335 -1095941457 -9445685</internalNodes>
          <leafValues>
            -4.1818562150001526e-001 2.0798788964748383e-001</leafValues></_>
        <_>
          <internalNodes>
            0 -1 319 -1428552565 -1417260542 -561981469 -18261006
            -1397075958 -374489998 -139807754 -348481</internalNodes>
          <leafValues>
            -3.6613985896110535e-001 2.4163077771663666e-001</leafValues></_>
        <_>
          <internalNodes>
            0 -1 159 -146583414 797441882 -627482895 -1077822811
            1864135816 264801671 1246778762 -495322341</internalNodes>
          <leafValues>
            -3.3822518587112427e-001 2.4300737679004669e-001</leafValues></_>
        <_>
          <internalNodes>
            0 -1 375 2098040458 1040372723 -1231867804 1059059541
            416746222 1066975402 1236238272 -1149936371</internalNodes>
          <leafValues>
            -2.9790377616882324e-001 2.8440758585929871e-001</leafValues></_>
        <_>
          <internalNodes>
            0 -1 91 1528865346 -1279843198 -1868340718 -1363177003
            1630670602 -1614722686 1516372238 39276119</internalNodes>
          <leafValues>
            -4.1817626357078552e-001 1.9409415125846863e-001</leafValues></_>
        <_>
          <internalNodes>
            0 -1 383 -86740456 -547492669 1346404090 -396171010
            2062973616 1924396031 982071980 -17839426</internalNodes>
          <leafValues>
            -2.8836986422538757e-001 2.7804628014564514e-001</leafValues></_>
        <_>
          <internalNodes>
            0 -1 85 858853456 803699104 -464372688 236404033 184615552
            96513317 38162089 39015380</internalNodes>
          <leafValues>
            -6.0502433776855469e-001 1.3208849728107452e-001</leafValues></_>
        <_>
          <internalNodes>
            0 -1 100 2032977514 530648362 779563013 1743902706
            1594126381 -1077211005 -489348819 1741941701</internalNodes>
          <leafValues>
            -3.5167500376701355e-001 2.0220136642456055e-001</leafValues></_>
        <_>
          <internalNodes>
            0 -1 409 777201154 576488391 -678297726 -285237803
            1821318131 1688006796 -90295083 -1090696475</internalNodes>
          <leafValues>
            -4.1072654724121094e-001 1.8526756763458252e-001</leafValues></_>
        <_>
          <internalNodes>
            0 -1 284 -1363278800 -1358802674 -128961093 1356517589
            -946205692 -1145337311 -75366672 -73207346</internalNodes>
          <leafValues>
            -4.2309880256652832e-001 1.7234432697296143e-001</leafValues></_>
        <_>
          <internalNodes>
            0 -1 211 -94786676 -259867262 1367679267 -614197771
            1417674755 932444315 -96183750 923139718</internalNodes>
          <leafValues>
            -3.7968900799751282e-001 2.0381644368171692e-001</leafValues></_>
        <_>
          <internalNodes>
            0 -1 17 -1049603386 1065820934 -1801487328 -1244375981
            277495840 265867512 303908905 1622897495</internalNodes>
          <leafValues>
            -4.3614161014556885e-001 1.6585662961006165e-001</leafValues></_>
        <_>
          <internalNodes>
            0 -1 139 497079522 -1325185166 -1048085163 1855918402
            -1380036183 671958169 2105939487 671207466</internalNodes>
          <leafValues>
            -3.7792038917541504e-001 1.9951176643371582e-001</leafValues></_>
        <_>
          <internalNodes>
            0 -1 212 -1203042194 -334819028 -725552901 -1570782851
            -351577508 -1825963917 -1497697360 -88962843</internalNodes>
          <leafValues>
            -3.3725076913833618e-001 2.2059886157512665e-001</leafValues></_>
        <_>
          <internalNodes>
            0 -1 219 186733811 1703282824 1163854082 1986002257
            439342732 1330253835 -967426114 18138885</internalNodes>
          <leafValues>
            -3.2760560512542725e-001 2.3270431160926819e-001</leafValues></_>
        <_>
          <internalNodes>
            0 -1 61 1441105573 235299235 465468747 495409493 1996584802
            -1476785613 1124579198 63960679</internalNodes>
          <leafValues>
            -3.5314780473709106e-001 2.1970073878765106e-001</leafValues></_>
        <_>
          <internalNodes>
            0 -1 379 -266493298 1536414025 -151668256 873191166
            1021594191 244259642 -322683732 -976192082</internalNodes>
          <leafValues>
            -3.1614303588867188e-001 2.2689822316169739e-001</leafValues></_>
        <_>
          <internalNodes>
            0 -1 402 1052154884 2019568843 1376391640 788011460 46362069
            1814448523 1365911620 -1428476152</internalNodes>
          <leafValues>
            -4.2618650197982788e-001 1.8440902233123779e-001</leafValues></_>
        <_>
          <internalNodes>
            0 -1 144 -684852229 535243562 -369807565 926282985
            -435421489 -1616904724 -1073890920 -700496360</internalNodes>
          <leafValues>
            -1.7462629079818726e-001 4.4160601496696472e-001</leafValues></_>
        <_>
          <internalNodes>
            0 -1 277 -1635381514 780292108 -563820843 -254865070
            -23721374 -74477525 -216306958 -1141187616</internalNodes>
          <leafValues>
            -3.5212719440460205e-001 2.2630743682384491e-001</leafValues></_>
        <_>
          <internalNodes>
            0 -1 0 -589366474 -597932391 -614762496 -736570577 684467268
            1550319633 -119463580 -1541399020</internalNodes>
          <leafValues>
            -3.6498802900314331e-001 2.0398694276809692e-001</leafValues></_>
        <_>
          <internalNodes>
            0 -1 193 581457410 875532662 -783169197 -310538110
            1043296780 2126082257 -259274112 1567488727</internalNodes>
          <leafValues>
            -4.5077961683273315e-001 1.6231495141983032e-001</leafValues></_>
        <_>
          <internalNodes>
            0 -1 304 1932524459 -1683323478 -159046464 -1209021479
            1012362312 967426987 -1331864861 -1800053803</internalNodes>
          <leafValues>
            -2.9107087850570679e-001 2.5746235251426697e-001</leafValues></_>
        <_>
          <internalNodes>
            0 -1 347 -636953434 -1922814400 1691509382 174351445
            -1165181151 -397688701 2075746787 -1148953862</internalNodes>
          <leafValues>
            -2.9435318708419800e-001 2.6544600725173950e-001</leafValues></_></weakClassifiers></_>
    <!-- stage 5 -->
    <_>
      <maxWeakCount>24</maxWeakCount>
      <stageThreshold>-1.8531719446182251e+000</stageThreshold>
      <weakClassifiers>
        <_>
          <internalNodes>
            0 -1 215 -527105 -135289414 939472755 -538970253 -1094727457
            -5516290 -154166289 -305</internalNodes>
          <leafValues>
            -6.1543804407119751e-001 1.0567412525415421e-001</leafValues></_>
        <_>
          <internalNodes>
            0 -1 290 -1998450529 -1500766194 -796976717 -83978854
            -1410671478 -880023153 -91554377 -18416901</internalNodes>
          <leafValues>
            -4.1332638263702393e-001 1.7304188013076782e-001</leafValues></_>
        <_>
          <internalNodes>
            0 -1 140 2023972310 938259944 -744490191 -747807234
            520314498 467564277 872132302 -251663341</internalNodes>
          <leafValues>
            -2.9277983307838440e-001 2.5910794734954834e-001</leafValues></_>
        <_>
          <internalNodes>
            0 -1 283 -80685950 -584245437 636312144 1066360181
            1970016274 -1095019641 918829931 1486149989</internalNodes>
          <leafValues>
            -3.5257720947265625e-001 2.0227143168449402e-001</leafValues></_>
        <_>
          <internalNodes>
            0 -1 68 -1463382770 236456090 -1162278032 -1487103621
            1181699444 758055735 -1309804905 1476387111</internalNodes>
          <leafValues>
            -4.4603028893470764e-001 1.7872616648674011e-001</leafValues></_>
        <_>
          <internalNodes>
            0 -1 147 -751538013 1072368352 -419484825 1934866943
            512450186 1062174532 -958777447 -203171898</internalNodes>
          <leafValues>
            -2.6381376385688782e-001 2.6570177078247070e-001</leafValues></_>
        <_>
          <internalNodes>
            0 -1 413 173264802 1463025491 -269287772 992607743
            1056220869 -1484783649 -1124261900 -1699009798</internalNodes>
          <leafValues>
            -2.5577735900878906e-001 2.7913773059844971e-001</leafValues></_>
        <_>
          <internalNodes>
            0 -1 205 -1416757174 145241579 2055395475 -1125227303
            -1161163186 -1262551832 -755319560 -1172656488</internalNodes>
          <leafValues>
            -3.4537637233734131e-001 2.0600831508636475e-001</leafValues></_>
        <_>
          <internalNodes>
            0 -1 8 -551027119 -1223731327 -1828600755 -1899024359
            1935020964 443232899 89147874 238246695</internalNodes>
          <leafValues>
            -3.1798589229583740e-001 2.3564861714839935e-001</leafValues></_>
        <_>
          <internalNodes>
            0 -1 324 -591939012 -614660010 1042042658 -233539706
            1300766368 530500078 -1703536163 -1929589234</internalNodes>
          <leafValues>
            -3.0676114559173584e-001 2.4218417704105377e-001</leafValues></_>
        <_>
          <internalNodes>
            0 -1 366 -1989153376 -819966139 -752625193 1732923893
            -979510549 218825787 1526029301 -855831111</internalNodes>
          <leafValues>
            -2.8637200593948364e-001 2.5707396864891052e-001</leafValues></_>
        <_>
          <internalNodes>
            0 -1 279 -1360323495 -355597486 -191498255 1690562782
            419418702 -884801430 -542115375 -222634508</internalNodes>
          <leafValues>
            -3.5916173458099365e-001 2.1250645816326141e-001</leafValues></_>
        <_>
          <internalNodes>
            0 -1 93 1712488448 -170777120 927807538 491067761 1342329344
            629265545 1107322387 1193506217</internalNodes>
          <leafValues>
            -5.4477512836456299e-001 1.3035811483860016e-001</leafValues></_>
        <_>
          <internalNodes>
            0 -1 232 388026496 901346056 -738165807 -1336044132
            1141340616 14057635 1721867674 39015825</internalNodes>
          <leafValues>
            -4.1701427102088928e-001 1.6710382699966431e-001</leafValues></_>
        <_>
          <internalNodes>
            0 -1 272 -1400485302 715522239 -1543053054 14442383
            -1024636336 -1395967409 -13733372 -1360344528</internalNodes>
          <leafValues>
            -4.8426628112792969e-001 1.3277894258499146e-001</leafValues></_>
        <_>
          <internalNodes>
            0 -1 136 -138160469 -1240754857 1011971152 1050399719
            915634312 170645505 -1229188582 209184282</internalNodes>
          <leafValues>
            -2.6842364668846130e-001 2.6974546909332275e-001</leafValues></_>
        <_>
          <internalNodes>
            0 -1 184 -1536280301 -289223624 2122250139 -675758352
            -1883441786 -820150411 -1623796591 -272984865</internalNodes>
          <leafValues>
            -2.3830807209014893e-001 2.8160375356674194e-001</leafValues></_>
        <_>
          <internalNodes>
            0 -1 308 774857930 1925026222 -186789134 1692390863
            438512462 924887475 -1181853181 1820749045</internalNodes>
          <leafValues>
            -4.3858367204666138e-001 1.6592119634151459e-001</leafValues></_>
        <_>
          <internalNodes>
            0 -1 170 -398783990 -1884654606 -1979561876 1880842707
            -1365490156 -1951537117 -1165561612 -80048263</internalNodes>
          <leafValues>
            -3.3835166692733765e-001 2.1157404780387878e-001</leafValues></_>
        <_>
          <internalNodes>
            0 -1 52 1466018354 -2025683134 2060118554 265113749
            1711657008 1806398282 1999864202 126179339</internalNodes>
          <leafValues>
            -3.8554707169532776e-001 1.7742049694061279e-001</leafValues></_>
        <_>
          <internalNodes>
            0 -1 289 250893404 -387685746 1222166713 -118108044
            319427082 -1560148306 -203359843 -680861751</internalNodes>
          <leafValues>
            -3.6393710970878601e-001 2.0115849375724792e-001</leafValues></_>
        <_>
          <internalNodes>
            0 -1 355 370727050 244918996 17314445 785985968 847060122
            1510132363 2057714239 14699516</internalNodes>
          <leafValues>
            -3.9289638400077820e-001 1.6446585953235626e-001</leafValues></_>
        <_>
          <internalNodes>
            0 -1 99 805825379 -1237802030 626413833 1049090517 587362840
            -1121744190 235637183 805026147</internalNodes>
          <leafValues>
            -3.0910226702690125e-001 2.2553478181362152e-001</leafValues></_>
        <_>
          <internalNodes>
            0 -1 157 -2046802478 1466827502 1162420738 995455927
            -1156626808 1336920472 -1777451199 -2041212980</internalNodes>
          <leafValues>
            -3.2072189450263977e-001 2.1509894728660583e-001</leafValues></_></weakClassifiers></_>
    <!-- stage 6 -->
    <_>
      <maxWeakCount>25</maxWeakCount>
      <stageThreshold>-1.9299787282943726e+000</stageThreshold>
      <weakClassifiers>
        <_>
          <internalNodes>
            0 -1 256 -147589893 -73544198 1124012563 -83886123 -4797778
            -1347481445 -566042645 -83886117</internalNodes>
          <leafValues>
            -6.3524377346038818e-001 3.5109460353851318e-002</leafValues></_>
        <_>
          <internalNodes>
            0 -1 32 528872571 386884434 -58056181 -1901593813 207884290
            -2020736625 188898473 174084421</internalNodes>
          <leafValues>
            -4.8760604858398438e-001 1.2675607204437256e-001</leafValues></_>
        <_>
          <internalNodes>
            0 -1 247 1992293374 -544215058 -134595981 -3 486530886
            645918703 -822087749 -206045194</internalNodes>
          <leafValues>
            -2.4339468777179718e-001 3.2433941960334778e-001</leafValues></_>
        <_>
          <internalNodes>
            0 -1 339 782369802 -2099226854 1255027703 -27362472
            -1080156082 -285052061 -302364445 -542448199</internalNodes>
          <leafValues>
            -4.0287864208221436e-001 1.9910070300102234e-001</leafValues></_>
        <_>
          <internalNodes>
            0 -1 35 1473640293 -76437574 -1233704410 2079293233
            -552087302 -413669472 -1292011059 -268569223</internalNodes>
          <leafValues>
            -1.7348925769329071e-001 4.4406834244728088e-001</leafValues></_>
        <_>
          <internalNodes>
            0 -1 294 -7475446 1570600925 1749056816 1689162334 940733868
            256412314 -1298983432 -2031108666</internalNodes>
          <leafValues>
            -3.1357502937316895e-001 2.4630853533744812e-001</leafValues></_>
        <_>
          <internalNodes>
            0 -1 9 -5507143 -1355809946 -80017087 -618399978 -1342221118
            234831743 399644744 1295247247</internalNodes>
          <leafValues>
            -2.2511622309684753e-001 3.2100740075111389e-001</leafValues></_>
        <_>
          <internalNodes>
            0 -1 176 -1565915077 -893369328 -1705225769 -58779562
            -1349857174 -2020982733 -1282492173 -631581959</internalNodes>
          <leafValues>
            -3.2874783873558044e-001 2.3994299769401550e-001</leafValues></_>
        <_>
          <internalNodes>
            0 -1 316 1124065226 -1766281062 1385105008 -1194733613
            1922911886 -1197789141 2056608882 -1653769218</internalNodes>
          <leafValues>
            -2.9973608255386353e-001 2.4570824205875397e-001</leafValues></_>
        <_>
          <internalNodes>
            0 -1 223 -1727802064 -1653800575 253446260 -1074146943
            1578807754 -1131772798 -967825585 1976954960</internalNodes>
          <leafValues>
            -3.2086861133575439e-001 2.3167592287063599e-001</leafValues></_>
        <_>
          <internalNodes>
            0 -1 415 981322498 292810575 -16844252 -1149919234 914272132
            -151584825 -1075839592 -1963770065</internalNodes>
          <leafValues>
            -2.7099919319152832e-001 2.8536811470985413e-001</leafValues></_>
        <_>
          <internalNodes>
            0 -1 160 1676343940 662819203 -591273740 -1253572617
            571112000 423655487 1405789897 -170002157</internalNodes>
          <leafValues>
            -3.8391339778900146e-001 1.9944040477275848e-001</leafValues></_>
        <_>
          <internalNodes>
            0 -1 320 -1080422250 -1498545530 -1156329251 -1428356596
            -1177380 1907068934 -1702482978 -1963575955</internalNodes>
          <leafValues>
            -3.9398065209388733e-001 1.8387551605701447e-001</leafValues></_>
        <_>
          <internalNodes>
            0 -1 421 -1829282508 1052992415 -1076740850 2126139798
            450975376 1587330700 -1441813044 -1166714274</internalNodes>
          <leafValues>
            -3.5203319787979126e-001 2.0961527526378632e-001</leafValues></_>
        <_>
          <internalNodes>
            0 -1 112 -759179779 -1070291 -150995614 -18137117 -972030833
            796606326 2141155212 -197296177</internalNodes>
          <leafValues>
            -1.6378983855247498e-001 4.2999511957168579e-001</leafValues></_>
        <_>
          <internalNodes>
            0 -1 318 -1462368018 -1367191252 -268373520 1346061780
            -1207703478 -1895685051 -1162151709 -740316938</internalNodes>
          <leafValues>
            -3.3138081431388855e-001 2.2073353826999664e-001</leafValues></_>
        <_>
          <internalNodes>
            0 -1 90 1168237137 -1211685690 -766817707 576697233
            -1076985854 -1983313911 -897576629 -346787707</internalNodes>
          <leafValues>
            -2.7455595135688782e-001 2.5443366169929504e-001</leafValues></_>
        <_>
          <internalNodes>
            0 -1 391 109906112 -330504786 -138024640 -497263487
            1515313777 1804027931 -536784939 -1426379675</internalNodes>
          <leafValues>
            -3.9477905631065369e-001 1.7542318999767303e-001</leafValues></_>
        <_>
          <internalNodes>
            0 -1 12 -322372106 1934816459 1965150472 -674250681
            1528523534 1938475582 1103798816 12537779</internalNodes>
          <leafValues>
            -3.2492548227310181e-001 2.1104829013347626e-001</leafValues></_>
        <_>
          <internalNodes>
            0 -1 261 -1933701382 -416346524 -1191198733 -28616534
            -1359171858 -1935671450 -688474117 -536965121</internalNodes>
          <leafValues>
            -2.4741305410861969e-001 2.8896316885948181e-001</leafValues></_>
        <_>
          <internalNodes>
            0 -1 353 1322102730 1040679372 -603189365 1994115539
            276920836 1574867105 1551981557 -2532580</internalNodes>
          <leafValues>
            -3.3955457806587219e-001 2.0798176527023315e-001</leafValues></_>
        <_>
          <internalNodes>
            0 -1 364 181941269 -1364414215 227694583 -1971404294
            2058238837 -1386094454 -439878920 -120970938</internalNodes>
          <leafValues>
            -3.5991412401199341e-001 1.9994038343429565e-001</leafValues></_>
        <_>
          <internalNodes>
            0 -1 53 -144447848 -4292064 -727103102 1850735312 1159031659
            689557505 237118119 1668778131</internalNodes>
          <leafValues>
            -2.7196016907691956e-001 2.8049376606941223e-001</leafValues></_>
        <_>
          <internalNodes>
            0 -1 77 -563176517 2011430831 -201588896 1257160678
            -2107189374 509017975 -134376822 -939786285</internalNodes>
          <leafValues>
            -1.9935999810695648e-001 3.5632896423339844e-001</leafValues></_>
        <_>
          <internalNodes>
            0 -1 104 -992500440 359776395 620824834 1187576034
            -1884829686 -1962106486 1099149823 1734824278</internalNodes>
          <leafValues>
            -3.8255596160888672e-001 1.8963250517845154e-001</leafValues></_></weakClassifiers></_>
    <!-- stage 7 -->
    <_>
      <maxWeakCount>24</maxWeakCount>
      <stageThreshold>-2.0570602416992187e+000</stageThreshold>
      <weakClassifiers>
        <_>
          <internalNodes>
            0 -1 204 -10486561 -4199427 1537718640 -10232875 -599144245
            -250360917 -593770021 -7349269</internalNodes>
          <leafValues>
            -6.0071736574172974e-001 2.5889047980308533e-001</leafValues></_>
        <_>
          <internalNodes>
            0 -1 246 -80702286 -92995440 638017034 1054701937 705855690
            -1104180725 -1901830341 1926561031</internalNodes>
          <leafValues>
            -4.4537651538848877e-001 1.5920808911323547e-001</leafValues></_>
        <_>
          <internalNodes>
            0 -1 177 -1356775390 -1511841142 1461805269 -829085371
            -1145943110 -1211138037 379747742 -1506619039</internalNodes>
          <leafValues>
            -4.1799017786979675e-001 1.8630982935428619e-001</leafValues></_>
        <_>
          <internalNodes>
            0 -1 267 759692754 105371077 1441650941 -1379463085
            1230993997 1519327582 -104137831 1979052402</internalNodes>
          <leafValues>
            -3.1830647587776184e-001 2.7719086408615112e-001</leafValues></_>
        <_>
          <internalNodes>
            0 -1 210 1988260746 -143693852 -598669342 1844924923
            1210537732 788230165 1759579714 2107997464</internalNodes>
          <leafValues>
            -4.7818294167518616e-001 1.2497254461050034e-001</leafValues></_>
        <_>
          <internalNodes>
            0 -1 67 -1960641755 857784235 1810628289 -1108902029
            259722823 1064828915 -310437185 -1116211461</internalNodes>
          <leafValues>
            -2.4052882194519043e-001 3.2456967234611511e-001</leafValues></_>
        <_>
          <internalNodes>
            0 -1 21 900988621 -1079824718 -1229509037 1006598123
            238208640 790523683 39621535 2138535394</internalNodes>
          <leafValues>
            -2.6912069320678711e-001 2.8840619325637817e-001</leafValues></_>
        <_>
          <internalNodes>
            0 -1 436 544096000 43385418 1570814402 -1965502247
            -1172663808 206469135 -692482175 -1126422799</internalNodes>
          <leafValues>
            -4.5535802841186523e-001 1.6874510049819946e-001</leafValues></_>
        <_>
          <internalNodes>
            0 -1 190 2007228115 1053474634 -1225785495 669875955
            -1155858624 1811830783 2079693040 -601883271</internalNodes>
          <leafValues>
            -2.3522654175758362e-001 3.1765994429588318e-001</leafValues></_>
        <_>
          <internalNodes>
            0 -1 221 -1478033341 -303743810 -25202945 -84198657
            -1631789366 -672170025 -1963022150 -81010689</internalNodes>
          <leafValues>
            -2.4841633439064026e-001 3.1396451592445374e-001</leafValues></_>
        <_>
          <internalNodes>
            0 -1 326 -11893712 -273697343 914234386 573219258 981676944
            185026571 -1186326280 80181219</internalNodes>
          <leafValues>
            -3.8001215457916260e-001 1.9425183534622192e-001</leafValues></_>
        <_>
          <internalNodes>
            0 -1 186 27395122 -1901304898 -1218864662 -146949960
            27390824 -811892711 -642064129 -1682624325</internalNodes>
          <leafValues>
            -3.0145555734634399e-001 2.4541945755481720e-001</leafValues></_>
        <_>
          <internalNodes>
            0 -1 227 1132516457 1579713570 177671843 -627190923
            2144240268 -291159925 -225388417 1589989716</internalNodes>
          <leafValues>
            -2.7583977580070496e-001 2.7196773886680603e-001</leafValues></_>
        <_>
          <internalNodes>
            0 -1 22 -1284451996 1573790062 -1790842848 1902490066
            1577271874 159408168 542128669 341700036</internalNodes>
          <leafValues>
            -3.7567555904388428e-001 1.9518975913524628e-001</leafValues></_>
        <_>
          <internalNodes>
            0 -1 357 -1467282418 -2098957814 -1863638094 -2104901240
            -739047330 -905281527 -1551850525 -824253736</internalNodes>
          <leafValues>
            -4.0262234210968018e-001 2.0632027089595795e-001</leafValues></_>
        <_>
          <internalNodes>
            0 -1 417 343816970 829675347 -787451708 474202271 2015049382
            -99178424 -24453384 -1360577557</internalNodes>
          <leafValues>
            -3.2666927576065063e-001 2.3342396318912506e-001</leafValues></_>
        <_>
          <internalNodes>
            0 -1 153 -2035937653 -1268903590 -1672693330 -1267707419
            -139505021 -1156637952 -125904201 -738543429</internalNodes>
          <leafValues>
            -2.7288651466369629e-001 2.7938669919967651e-001</leafValues></_>
        <_>
          <internalNodes>
            0 -1 262 -1825523158 -1081106295 1900122396 -2051075587
            -1996281189 732661897 39328395 -270232299</internalNodes>
          <leafValues>
            -3.1082898378372192e-001 2.4646788835525513e-001</leafValues></_>
        <_>
          <internalNodes>
            0 -1 60 1627689922 176252040 1947240450 -1495809577
            1327702787 823658883 1410491311 108505363</internalNodes>
          <leafValues>
            -4.7533014416694641e-001 1.6750511527061462e-001</leafValues></_>
        <_>
          <internalNodes>
            0 -1 139 1034474818 -393514490 -779005679 -530763434
            832495408 681066692 -1214901495 520123880</internalNodes>
          <leafValues>
            -3.7819236516952515e-001 1.9211459159851074e-001</leafValues></_>
        <_>
          <internalNodes>
            0 -1 220 1648688970 -1668612220 -576116925 1926322139
            215570441 511865275 1887713776 1464256968</internalNodes>
          <leafValues>
            -3.7218946218490601e-001 1.9415624439716339e-001</leafValues></_>
        <_>
          <internalNodes>
            0 -1 292 783679493 -1976934102 -1836002590 408900753
            -1247795122 -809285114 2057466806 -51225799</internalNodes>
          <leafValues>
            -4.3323609232902527e-001 1.8139638006687164e-001</leafValues></_>
        <_>
          <internalNodes>
            0 -1 385 343985882 729870468 -243211328 -1714556079
            203845133 -4158838 235036314 -1352046264</internalNodes>
          <leafValues>
            -3.2557097077369690e-001 2.2690340876579285e-001</leafValues></_>
        <_>
          <internalNodes>
            0 -1 428 171445760 478104734 964809872 110925262 453541136
            523854028 2068839060 -1359213863</internalNodes>
          <leafValues>
            -4.5201784372329712e-001 1.7408214509487152e-001</leafValues></_></weakClassifiers></_>
    <!-- stage 8 -->
    <_>
      <maxWeakCount>25</maxWeakCount>
      <stageThreshold>-1.8321238756179810e+000</stageThreshold>
      <weakClassifiers>
        <_>
          <internalNodes>
            0 -1 92 -525057 -108352274 1548449407 -34082317 -7365894
            -1633762944 -220472353 -1317</internalNodes>
          <leafValues>
            -6.3467121124267578e-001 1.6973619163036346e-001</leafValues></_>
        <_>
          <internalNodes>
            0 -1 337 -36645730 -109577712 318576669 2021477181
            -1146355048 -1148399156 2129928063 -898351269</internalNodes>
          <leafValues>
            -3.7368565797805786e-001 2.3360040783882141e-001</leafValues></_>
        <_>
          <internalNodes>
            0 -1 203 523195786 1996989988 -1186910702 -213709321
            1278171776 1047090165 -55211338 1731427089</internalNodes>
          <leafValues>
            -4.2654350399971008e-001 1.9361901283264160e-001</leafValues></_>
        <_>
          <internalNodes>
            0 -1 321 -1532623629 -1414639534 -23699403 -218123068
            -1309947250 -356425671 -224742585 -206650393</internalNodes>
          <leafValues>
            -3.1403481960296631e-001 2.2359679639339447e-001</leafValues></_>
        <_>
          <internalNodes>
            0 -1 208 -141165605 535332418 -151287182 1743208433
            -1139024320 790560759 -1124123365 -711592373</internalNodes>
          <leafValues>
            -2.0922477543354034e-001 3.4854176640510559e-001</leafValues></_>
        <_>
          <internalNodes>
            0 -1 359 -1079897720 -1141376360 -783852713 1659540444
            -10736986 -1987326718 -1442575681 -2105647875</internalNodes>
          <leafValues>
            -3.2056376338005066e-001 2.1851043403148651e-001</leafValues></_>
        <_>
          <internalNodes>
            0 -1 181 -643606494 517833952 978674722 585095435 788978346
            -1500540917 1606605503 1665657667</internalNodes>
          <leafValues>
            -2.9250800609588623e-001 2.3826441168785095e-001</leafValues></_>
        <_>
          <internalNodes>
            0 -1 371 673710592 -1968128530 1027857708 617270967
            524374900 -1564244254 -106470539 -1175749720</internalNodes>
          <leafValues>
            -4.4966721534729004e-001 1.3748227059841156e-001</leafValues></_>
        <_>
          <internalNodes>
            0 -1 71 -1354529 -1691615621 -1157677294 -1153732994
            -1638785342 268009430 -273153256 -780665841</internalNodes>
          <leafValues>
            -2.1246615052223206e-001 3.0911338329315186e-001</leafValues></_>
        <_>
          <internalNodes>
            0 -1 44 958873347 -1467266165 1359224839 522139275 352659878
            965410819 960834473 125244535</internalNodes>
          <leafValues>
            -4.3927514553070068e-001 1.5957446396350861e-001</leafValues></_>
        <_>
          <internalNodes>
            0 -1 397 2042604936 1527390622 -774799091 462314317
            451934427 -629014485 977871840 -1144292779</internalNodes>
          <leafValues>
            -2.8962650895118713e-001 2.2768074274063110e-001</leafValues></_>
        <_>
          <internalNodes>
            0 -1 342 -25274616 1864211501 1816302751 671915196
            -1379316832 789455435 -1350165828 -1663565826</internalNodes>
          <leafValues>
            -2.9876995086669922e-001 2.4825210869312286e-001</leafValues></_>
        <_>
          <internalNodes>
            0 -1 98 -510343896 1926285408 -1462402558 -1248488111
            -1677715432 1045871559 -500801287 1472648201</internalNodes>
          <leafValues>
            -3.9467990398406982e-001 1.7807771265506744e-001</leafValues></_>
        <_>
          <internalNodes>
            0 -1 76 -12364814 -1123765372 -1269758911 457536080
            1007375522 256993516 2015832313 1757005398</internalNodes>
          <leafValues>
            -3.1294277310371399e-001 2.3089335858821869e-001</leafValues></_>
        <_>
          <internalNodes>
            0 -1 388 1042285570 -366968082 1427526328 -355040304
            -201977833 -521297855 -1528704258 -1093730564</internalNodes>
          <leafValues>
            -3.4669110178947449e-001 2.1277216076850891e-001</leafValues></_>
        <_>
          <internalNodes>
            0 -1 255 -1598351760 -1920183232 -1274832777 -1740713866
            -1078216170 -1393868758 -74737435 -68486919</internalNodes>
          <leafValues>
            -3.6887645721435547e-001 2.0443008840084076e-001</leafValues></_>
        <_>
          <internalNodes>
            0 -1 282 -71707717 -39063622 -1497627759 -407540227
            -1086468469 -1342308355 -285901505 2060832603</internalNodes>
          <leafValues>
            -1.7140986025333405e-001 4.1779905557632446e-001</leafValues></_>
        <_>
          <internalNodes>
            0 -1 332 -1147204454 -825343090 -721894754 -220203315
            -1651555520 -1383739880 -1723268360 -17899010</internalNodes>
          <leafValues>
            -2.7454388141632080e-001 2.4880336225032806e-001</leafValues></_>
        <_>
          <internalNodes>
            0 -1 109 -488439942 416264125 -1073807637 602140263
            1333214922 544698239 1870659524 -939526281</internalNodes>
          <leafValues>
            -2.3873515427112579e-001 2.7219426631927490e-001</leafValues></_>
        <_>
          <internalNodes>
            0 -1 38 -810550277 -151990466 2141191804 -1228161401
            490942356 763313983 -1402607415 -430441129</internalNodes>
          <leafValues>
            -1.8183334171772003e-001 3.7457868456840515e-001</leafValues></_>
        <_>
          <internalNodes>
            0 -1 266 -397932540 705229744 -1689003981 -369360614
            -2088163014 706664493 -1681798727 -1883283346</internalNodes>
          <leafValues>
            -3.0543431639671326e-001 2.3112218081951141e-001</leafValues></_>
        <_>
          <internalNodes>
            0 -1 390 1857564256 699374290 -254191453 -205285118
            -541516203 -1957132024 -6360400 -1140900356</internalNodes>
          <leafValues>
            -3.1140267848968506e-001 2.2726431488990784e-001</leafValues></_>
        <_>
          <internalNodes>
            0 -1 27 2113076054 -671761606 850897715 1073654753
            -837628793 -1073774685 -1173562546 -285345861</internalNodes>
          <leafValues>
            -2.1190410852432251e-001 3.4517058730125427e-001</leafValues></_>
        <_>
          <internalNodes>
            0 -1 297 -610552413 -7161860 -1174445135 -340256899
            2117161194 -134856705 535920295 -1254500459</internalNodes>
          <leafValues>
            -2.1162185072898865e-001 3.3080637454986572e-001</leafValues></_>
        <_>
          <internalNodes>
            0 -1 252 -1392373509 -462857722 -1709739596 711850455
            -1714938226 170725387 -703220198 -742135861</internalNodes>
          <leafValues>
            -3.0131030082702637e-001 2.2824873030185699e-001</leafValues></_></weakClassifiers></_>
    <!-- stage 9 -->
    <_>
      <maxWeakCount>27</maxWeakCount>
      <stageThreshold>-1.8016468286514282e+000</stageThreshold>
      <weakClassifiers>
        <_>
          <internalNodes>
            0 -1 162 -539110149 -2638918 501043547 -551578301 -19149585
            -135276077 -103491153 -537401</internalNodes>
          <leafValues>
            -6.3162183761596680e-001 9.1575093567371368e-002</leafValues></_>
        <_>
          <internalNodes>
            0 -1 119 1603317892 -1222661206 -1672142318 -1613900873
            -569753002 104992024 -524012641 -11535270</internalNodes>
          <leafValues>
            -4.6987745165824890e-001 1.6259647905826569e-001</leafValues></_>
        <_>
          <internalNodes>
            0 -1 254 1086250734 1053082530 1682189856 -11215510
            346752586 746940962 -1433519245 532019235</internalNodes>
          <leafValues>
            -4.4654995203018188e-001 1.4617104828357697e-001</leafValues></_>
        <_>
          <internalNodes>
            0 -1 367 438800008 685604147 -1690052635 990470807 268991695
            1289502894 -1180014443 -1193418983</internalNodes>
          <leafValues>
            -2.8825673460960388e-001 2.4989756941795349e-001</leafValues></_>
        <_>
          <internalNodes>
            0 -1 73 -496574726 1047265278 -1091670480 1333444430 -8766
            670938975 -957987574 -2141786326</internalNodes>
          <leafValues>
            -2.6147687435150146e-001 2.7568736672401428e-001</leafValues></_>
        <_>
          <internalNodes>
            0 -1 380 -558097904 -66305836 -37317196 168972545 209997344
            -8279262 -1079883240 -1494336950</internalNodes>
          <leafValues>
            -4.0314462780952454e-001 1.7688316106796265e-001</leafValues></_>
        <_>
          <internalNodes>
            0 -1 319 -1527112525 1791374346 -598287437 -160509599
            -1292901694 -517349282 -74777886 -4805636</internalNodes>
          <leafValues>
            -3.0739438533782959e-001 2.1510851383209229e-001</leafValues></_>
        <_>
          <internalNodes>
            0 -1 81 -176713383 1937714830 -1292179728 2011889195
            -483528512 265191282 -1145079719 -168035245</internalNodes>
          <leafValues>
            -2.0973232388496399e-001 3.4822058677673340e-001</leafValues></_>
        <_>
          <internalNodes>
            0 -1 74 -1816018864 -1383213640 1782652741 -1643194432
            -1168243024 231600657 1048844552 -1879704338</internalNodes>
          <leafValues>
            -3.6303964257240295e-001 1.8561162054538727e-001</leafValues></_>
        <_>
          <internalNodes>
            0 -1 407 721804032 1040996847 -791051816 -6337753 851473356
            -339603319 143226820 -1157944526</internalNodes>
          <leafValues>
            -3.2473960518836975e-001 2.1547874808311462e-001</leafValues></_>
        <_>
          <internalNodes>
            0 -1 54 1427237118 -685544156 -690966413 -887778989
            1318329509 1310392802 1994322937 1204146691</internalNodes>
          <leafValues>
            -2.6553675532341003e-001 2.6022210717201233e-001</leafValues></_>
        <_>
          <internalNodes>
            0 -1 237 -2044847026 581842206 2035448689 -525872920
            -1271987644 -199075070 -1162615596 -1152736560</internalNodes>
          <leafValues>
            -3.6175677180290222e-001 1.8701961636543274e-001</leafValues></_>
        <_>
          <internalNodes>
            0 -1 251 -1416491776 -5818071 -263204417 -1143122945
            -1692677162 -1744350678 -1757226109 -1090645603</internalNodes>
          <leafValues>
            -3.8397949934005737e-001 1.6551698744297028e-001</leafValues></_>
        <_>
          <internalNodes>
            0 -1 195 -753434173 -550011917 1073692272 -8224771
            2054373455 2134343535 1048561803 -1086335231</internalNodes>
          <leafValues>
            -2.3877649009227753e-001 2.7199760079383850e-001</leafValues></_>
        <_>
          <internalNodes>
            0 -1 124 1595132522 989802234 1454734259 -1937768655
            -1080153446 -34619393 2137062703 -269926413</internalNodes>
          <leafValues>
            -2.2189554572105408e-001 2.9198253154754639e-001</leafValues></_>
        <_>
          <internalNodes>
            0 -1 377 -1415415250 -1375406904 -32288592 -24210952
            -1516060600 -1290628456 -1682347376 -1342209587</internalNodes>
          <leafValues>
            -3.0394950509071350e-001 2.1578930318355560e-001</leafValues></_>
        <_>
          <internalNodes>
            0 -1 422 -306560952 260595966 780335246 541368392
            -1546941740 9476404 -1083261208 -1127301191</internalNodes>
          <leafValues>
            -2.8420141339302063e-001 2.2928625345230103e-001</leafValues></_>
        <_>
          <internalNodes>
            0 -1 265 -912880629 964603352 -98954928 797765113 1174623145
            -1445051734 730036911 -1912609549</internalNodes>
          <leafValues>
            -2.3098377883434296e-001 2.8837001323699951e-001</leafValues></_>
        <_>
          <internalNodes>
            0 -1 143 -202680133 -1629306901 -84239023 791145323
            324483722 128794439 -1771135814 -12387057</internalNodes>
          <leafValues>
            -2.1074758470058441e-001 3.1402367353439331e-001</leafValues></_>
        <_>
          <internalNodes>
            0 -1 209 -249037357 -218550880 1705631842 1070989237
            -1104742399 -46268609 -1841914097 2138549703</internalNodes>
          <leafValues>
            -2.0159828662872314e-001 3.7085670232772827e-001</leafValues></_>
        <_>
          <internalNodes>
            0 -1 289 -1363017197 -1398380344 -369058615 -489495112
            -1154867900 -1234490742 -17372462 -1627657779</internalNodes>
          <leafValues>
            -3.7543952465057373e-001 1.8783745169639587e-001</leafValues></_>
        <_>
          <internalNodes>
            0 -1 131 1984996148 -1340505966 1376232806 -824180811
            1594112779 -1911570138 -524025270 1718660615</internalNodes>
          <leafValues>
            -3.6050611734390259e-001 1.7450594902038574e-001</leafValues></_>
        <_>
          <internalNodes>
            0 -1 438 1055360067 1046292638 403921283 516938206
            -274028400 -1484011350 -107251264 -1416939368</internalNodes>
          <leafValues>
            -2.5438037514686584e-001 2.5945955514907837e-001</leafValues></_>
        <_>
          <internalNodes>
            0 -1 83 173933226 -1561583320 -268193282 -1160372042
            707212292 146030609 -1548756742 -3171336</internalNodes>
          <leafValues>
            -2.7010285854339600e-001 2.3790352046489716e-001</leafValues></_>
        <_>
          <internalNodes>
            0 -1 335 -1693256470 -1950691658 307460814 970802677
            -761303858 -1783973237 -91746637 -1146290723</internalNodes>
          <leafValues>
            -2.4937671422958374e-001 2.5774332880973816e-001</leafValues></_>
        <_>
          <internalNodes>
            0 -1 174 1455247456 455410894 1556546594 970556548
            -625325504 656966073 1766660886 87386692</internalNodes>
          <leafValues>
            -4.9810859560966492e-001 1.3934929668903351e-001</leafValues></_>
        <_>
          <internalNodes>
            0 -1 264 111542333 -1397861674 -99449940 -24669807
            -1196535148 162463809 -1551192685 -1632180534</internalNodes>
          <leafValues>
            -3.7096196413040161e-001 1.9570484757423401e-001</leafValues></_></weakClassifiers></_>
    <!-- stage 10 -->
    <_>
      <maxWeakCount>30</maxWeakCount>
      <stageThreshold>-2.0308818817138672e+000</stageThreshold>
      <weakClassifiers>
        <_>
          <internalNodes>
            0 -1 269 -539173633 -714755593 926917207 -471894231
            -207042941 -158603037 -100410965 -137377589</internalNodes>
          <leafValues>
            -6.2373578548431396e-001 1.9047619774937630e-002</leafValues></_>
        <_>
          <internalNodes>
            0 -1 15 -5112609 1069264823 -419726846 -76022977 -812200256
            -1617694809 -1240115694 -1376259085</internalNodes>
          <leafValues>
            -2.8986394405364990e-001 3.2360005378723145e-001</leafValues></_>
        <_>
          <internalNodes>
            0 -1 194 975323394 2134337300 -1340625896 -1476586499
            1292639816 995128306 434593440 1949261653</internalNodes>
          <leafValues>
            -5.0329446792602539e-001 1.4091977477073669e-001</leafValues></_>
        <_>
          <internalNodes>
            0 -1 233 36175360 759496027 -640628166 802674296 2041796360
            2087856363 -74358712 -1578028253</internalNodes>
          <leafValues>
            -4.2757195234298706e-001 1.5352995693683624e-001</leafValues></_>
        <_>
          <internalNodes>
            0 -1 41 453111411 -1365298560 898467859 246373784 1898981376
            -1681369847 458412687 185946487</internalNodes>
          <leafValues>
            -3.8299646973609924e-001 1.8171682953834534e-001</leafValues></_>
        <_>
          <internalNodes>
            0 -1 340 -1465252718 -427105870 -159214928 -522275644
            834286606 -310214559 -1075154466 -17131019</internalNodes>
          <leafValues>
            -3.0737945437431335e-001 2.3790842294692993e-001</leafValues></_>
        <_>
          <internalNodes>
            0 -1 108 1899090788 1065433870 872514048 -1856684692
            -1442836337 449372274 -525789544 613446674</internalNodes>
          <leafValues>
            -3.3756715059280396e-001 2.2381724417209625e-001</leafValues></_>
        <_>
          <internalNodes>
            0 -1 406 186236160 743438991 -1596245048 1766447305
            333752460 949969607 1049196796 -1159046100</internalNodes>
          <leafValues>
            -3.4141960740089417e-001 2.0185026526451111e-001</leafValues></_>
        <_>
          <internalNodes>
            0 -1 382 -1696671630 1807611994 -1459723198 -184582146
            -1075343717 -1896567059 -88265042 -1896536066</internalNodes>
          <leafValues>
            -2.1891552209854126e-001 3.0531230568885803e-001</leafValues></_>
        <_>
          <internalNodes>
            0 -1 345 707038118 -1174972612 1073610621 -12902467
            -419433035 1602224094 -1937793124 -1045733451</internalNodes>
          <leafValues>
            -2.3511455953121185e-001 2.9106226563453674e-001</leafValues></_>
        <_>
          <internalNodes>
            0 -1 241 384716370 142882002 -1097335593 1786393610
            -1098230768 -721313783 -88458880 -290268717</internalNodes>
          <leafValues>
            -3.9354634284973145e-001 1.5825779736042023e-001</leafValues></_>
        <_>
          <internalNodes>
            0 -1 64 1160177832 -1649235040 2143188915 934281135
            926378215 -1107865839 645867194 1072654103</internalNodes>
          <leafValues>
            -2.4532286822795868e-001 2.6157745718955994e-001</leafValues></_>
        <_>
          <internalNodes>
            0 -1 392 714943010 33723285 -54316830 -1495215184
            -1943578795 1058640260 -959220815 -521594528</internalNodes>
          <leafValues>
            -4.5935967564582825e-001 1.3055208325386047e-001</leafValues></_>
        <_>
          <internalNodes>
            0 -1 276 -99557420 1347697476 -1233056176 -447985124
            2060211788 -710475382 2056101754 401283377</internalNodes>
          <leafValues>
            -3.1594488024711609e-001 2.0157521963119507e-001</leafValues></_>
        <_>
          <internalNodes>
            0 -1 284 -1230109613 -809209590 -19630665 1895029461
            -1163360126 -270290944 -604837125 -536944179</internalNodes>
          <leafValues>
            -2.7348110079765320e-001 2.4536865949630737e-001</leafValues></_>
        <_>
          <internalNodes>
            0 -1 168 1532352591 994048943 997928570 2012576947
            1058986154 -1090601193 -290559047 352185983</internalNodes>
          <leafValues>
            -1.8136054277420044e-001 3.5620787739753723e-001</leafValues></_>
        <_>
          <internalNodes>
            0 -1 372 -980694837 824262576 -25825425 -1426096131
            -53125297 -1073905675 1048465331 -1109819471</internalNodes>
          <leafValues>
            -2.3058520257472992e-001 2.9052782058715820e-001</leafValues></_>
        <_>
          <internalNodes>
            0 -1 156 -2138438613 -1494480810 -1203571009 -1135835059
            -1567996246 -510263248 -930420301 -1202024961</internalNodes>
          <leafValues>
            -3.0269131064414978e-001 2.1098084747791290e-001</leafValues></_>
        <_>
          <internalNodes>
            0 -1 396 -1127831168 2118609816 -267931508 834825089
            1895188469 457990217 -234131692 776631436</internalNodes>
          <leafValues>
            -3.7956228852272034e-001 1.6905397176742554e-001</leafValues></_>
        <_>
          <internalNodes>
            0 -1 419 1108214080 1690738120 -1068319698 -252017970
            -1421705148 -66944888 -203236354 -1081662214</internalNodes>
          <leafValues>
            -2.6805356144905090e-001 2.3476652801036835e-001</leafValues></_>
        <_>
          <internalNodes>
            0 -1 351 -2103046266 -2037467834 -1878072870 36501900
            729965120 -1417674576 -561411340 -1632613902</internalNodes>
          <leafValues>
            -4.3859660625457764e-001 1.3823972642421722e-001</leafValues></_>
        <_>
          <internalNodes>
            0 -1 77 1449252080 463590167 1460793432 -1684694927
            167991170 43518091 1890074816 -2123108613</internalNodes>
          <leafValues>
            -2.5959008932113647e-001 2.4882788956165314e-001</leafValues></_>
        <_>
          <internalNodes>
            0 -1 33 1470349644 -1948274238 1556696641 -86939967
            1057146510 -1953882099 465961354 -807013493</internalNodes>
          <leafValues>
            -2.6019272208213806e-001 2.6623713970184326e-001</leafValues></_>
        <_>
          <internalNodes>
            0 -1 105 -420729310 -830339966 -665839956 -204609174
            1384676461 194570245 -1949438788 -877174288</internalNodes>
          <leafValues>
            -2.5359240174293518e-001 2.5612992048263550e-001</leafValues></_>
        <_>
          <internalNodes>
            0 -1 231 -1433293120 -1431523872 -268487740 -1119900362
            276407832 1333591935 -402785893 -1476413716</internalNodes>
          <leafValues>
            -2.4069449305534363e-001 2.6680076122283936e-001</leafValues></_>
        <_>
          <internalNodes>
            0 -1 293 -183263426 247187976 -579054371 1855734245
            1017556096 1853407267 -1204393026 1290030551</internalNodes>
          <leafValues>
            -2.9066014289855957e-001 2.3391216993331909e-001</leafValues></_>
        <_>
          <internalNodes>
            0 -1 130 35066062 421548320 55783425 851757466 255045667
            734871788 -2111674245 613890499</internalNodes>
          <leafValues>
            -3.5451242327690125e-001 1.8763825297355652e-001</leafValues></_>
        <_>
          <internalNodes>
            0 -1 167 -1731455998 -364510889 -1739531010 -229093002
            -2082940858 -1355087821 2089333648 -1095188484</internalNodes>
          <leafValues>
            -3.1723713874816895e-001 2.0116135478019714e-001</leafValues></_>
        <_>
          <internalNodes>
            0 -1 229 539102260 -1949428204 -91194668 2061136030
            -1349081928 -888920056 -2120836357 -537479688</internalNodes>
          <leafValues>
            -3.5819059610366821e-001 1.7993572354316711e-001</leafValues></_>
        <_>
          <internalNodes>
            0 -1 107 -269487382 -1151013146 2137647731 -135659781
            -1820373502 1971322877 -2030220070 -134295470</internalNodes>
          <leafValues>
            -2.2346737980842590e-001 2.9739770293235779e-001</leafValues></_></weakClassifiers></_>
    <!-- stage 11 -->
    <_>
      <maxWeakCount>22</maxWeakCount>
      <stageThreshold>-2.1031022071838379e+000</stageThreshold>
      <weakClassifiers>
        <_>
          <internalNodes>
            0 -1 49 -145375745 -36199425 -1400136117 -590784033
            -227478041 -1098143543 -1341937777 -50999275</internalNodes>
          <leafValues>
            -6.3373690843582153e-001 1.0548134148120880e-001</leafValues></_>
        <_>
          <internalNodes>
            0 -1 137 2009144523 -1454900783 -196003184 -1509489920
            2031288898 823140616 -313654904 -1294988530</internalNodes>
          <leafValues>
            -4.5588392019271851e-001 1.7721134424209595e-001</leafValues></_>
        <_>
          <internalNodes>
            0 -1 365 773861152 -1216457291 -544535057 -1080865219
            1020913143 1971675580 -1414710967 95421697</internalNodes>
          <leafValues>
            -3.8818824291229248e-001 2.4663875997066498e-001</leafValues></_>
        <_>
          <internalNodes>
            0 -1 236 1962464751 -235032786 -1363966417 -268439571
            -206549497 108920823 985599243 -1625337909</internalNodes>
          <leafValues>
            -2.5672289729118347e-001 3.5965287685394287e-001</leafValues></_>
        <_>
          <internalNodes>
            0 -1 437 749515780 307294963 -548418408 675345345 -636430846
            -540818814 -972316880 -1904270325</internalNodes>
          <leafValues>
            -2.9360100626945496e-001 2.8776890039443970e-001</leafValues></_>
        <_>
          <internalNodes>
            0 -1 6 -292160014 -1442466995 -837929408 -1105229696
            264263392 260065288 772022273 -1302906041</internalNodes>
          <leafValues>
            -3.0029430985450745e-001 2.6608493924140930e-001</leafValues></_>
        <_>
          <internalNodes>
            0 -1 129 -165414039 599175057 876355235 -1497931915
            800604086 997719599 -1267687425 718749235</internalNodes>
          <leafValues>
            -2.6970744132995605e-001 2.8525504469871521e-001</leafValues></_>
        <_>
          <internalNodes>
            0 -1 183 -1548585707 -1834735791 -16818428 -755139211
            -1238303025 -138952721 -704872833 -943425596</internalNodes>
          <leafValues>
            -2.8055804967880249e-001 3.1686612963676453e-001</leafValues></_>
        <_>
          <internalNodes>
            0 -1 126 1192263680 1880189658 -1172499951 -1914941231
            1401383086 591653336 -503300263 2004879872</internalNodes>
          <leafValues>
            -4.4915628433227539e-001 1.7693212628364563e-001</leafValues></_>
        <_>
          <internalNodes>
            0 -1 121 718802063 888148048 -131445286 -1866636868
            1539114055 1111171171 -1148585234 -1213142568</internalNodes>
          <leafValues>
            -3.5022658109664917e-001 2.1332520246505737e-001</leafValues></_>
        <_>
          <internalNodes>
            0 -1 400 709658400 726908812 -1785861623 -1329271921
            946429892 921510568 1586396517 742067424</internalNodes>
          <leafValues>
            -4.8653700947761536e-001 1.6455152630805969e-001</leafValues></_>
        <_>
          <internalNodes>
            0 -1 361 2015235848 327848567 -2045277124 -1763948005
            1319275552 199396038 -1624015880 543439420</internalNodes>
          <leafValues>
            -4.2857375741004944e-001 1.5164346992969513e-001</leafValues></_>
        <_>
          <internalNodes>
            0 -1 63 2272425 924595205 973415859 -1419773110 803028804
            1003427842 1674149125 60799767</internalNodes>
          <leafValues>
            -3.9544963836669922e-001 1.6575102508068085e-001</leafValues></_>
        <_>
          <internalNodes>
            0 -1 94 1364255842 1884609040 -800515493 -1361178495
            1015819787 -1311897010 -828314835 594496071</internalNodes>
          <leafValues>
            -2.8937774896621704e-001 2.3524487018585205e-001</leafValues></_>
        <_>
          <internalNodes>
            0 -1 188 569680428 168215212 -1741601697 -1932726490
            178350351 312822528 -238843413 619707521</internalNodes>
          <leafValues>
            -4.0137246251106262e-001 1.8291071057319641e-001</leafValues></_>
        <_>
          <internalNodes>
            0 -1 244 1411020218 765768168 -192822264 224217317
            -1132929981 708334634 -1240974825 3603009</internalNodes>
          <leafValues>
            -3.6699497699737549e-001 1.8777552247047424e-001</leafValues></_>
        <_>
          <internalNodes>
            0 -1 344 -2113139785 980467391 -672157697 -1393737730
            -813695053 2147317695 1576359900 -306889367</internalNodes>
          <leafValues>
            -2.1125948429107666e-001 3.1465670466423035e-001</leafValues></_>
        <_>
          <internalNodes>
            0 -1 278 498587803 -47235922 -486586378 712727805 1022819786
            522583996 -2212040 -1248571781</internalNodes>
          <leafValues>
            -1.8901944160461426e-001 3.2358595728874207e-001</leafValues></_>
        <_>
          <internalNodes>
            0 -1 218 178066574 -959302313 -31099214 -524269411
            -634963892 -116375510 -1567690351 -1209353989</internalNodes>
          <leafValues>
            -3.4828367829322815e-001 1.9109560549259186e-001</leafValues></_>
        <_>
          <internalNodes>
            0 -1 11 1393936160 -1583506029 -938647540 -1585221501
            1065616522 704645248 235165978 1047951491</internalNodes>
          <leafValues>
            -3.7588143348693848e-001 1.6930784285068512e-001</leafValues></_>
        <_>
          <internalNodes>
            0 -1 101 1175954486 1372651795 -1269981055 -723711535
            -1241222876 591560887 -964185025 617316615</internalNodes>
          <leafValues>
            -3.4983104467391968e-001 1.8640390038490295e-001</leafValues></_>
        <_>
          <internalNodes>
            0 -1 327 704815141 177665500 -989477235 -1937299061
            982171149 2143715368 1887742864 590705505</internalNodes>
          <leafValues>
            -4.3662914633750916e-001 1.5179181098937988e-001</leafValues></_></weakClassifiers></_>
    <!-- stage 12 -->
    <_>
      <maxWeakCount>22</maxWeakCount>
      <stageThreshold>-2.0563499927520752e+000</stageThreshold>
      <weakClassifiers>
        <_>
          <internalNodes>
            0 -1 141 -7301903 -82179646 -2050232705 -39807535 -367868693
            -158601133 -2037600101 -1356471663</internalNodes>
          <leafValues>
            -6.9613260030746460e-001 1.4492753893136978e-002</leafValues></_>
        <_>
          <internalNodes>
            0 -1 275 -583741292 1431634961 -2128653267 1305335829
            -1163866048 -1147084017 722665343 -574752738</internalNodes>
          <leafValues>
            -4.2686173319816589e-001 2.5380775332450867e-001</leafValues></_>
        <_>
          <internalNodes>
            0 -1 127 824324138 907780792 -1811848823 -1882859711
            -1173708258 -1412734919 257317438 688930307</internalNodes>
          <leafValues>
            -4.5225831866264343e-001 2.2419166564941406e-001</leafValues></_>
        <_>
          <internalNodes>
            0 -1 142 -1818097806 -1134866160 -736667863 -1610542319
            -1229531964 -70461739 -1386079953 638767487</internalNodes>
          <leafValues>
            -4.2153352499008179e-001 1.8062192201614380e-001</leafValues></_>
        <_>
          <internalNodes>
            0 -1 75 -201074366 755206344 -325988768 294916353 2038517824
            162329989 -1139580352 1669212967</internalNodes>
          <leafValues>
            -4.5869645476341248e-001 2.0028270781040192e-001</leafValues></_>
        <_>
          <internalNodes>
            0 -1 206 -576596773 -1070466 -960533541 1316968053
            -1274546549 -537986097 2127846171 -170528827</internalNodes>
          <leafValues>
            -1.9633364677429199e-001 4.0683814883232117e-001</leafValues></_>
        <_>
          <internalNodes>
            0 -1 403 1851760398 1025637490 -8324 -3262468 506691575
            -1078206468 167648636 -1333039753</internalNodes>
          <leafValues>
            -2.3663027584552765e-001 2.9600018262863159e-001</leafValues></_>
        <_>
          <internalNodes>
            0 -1 249 -1441592741 -1345883742 -1069547421 2052276566
            -1614226876 -716601344 -1635583306 -25495299</internalNodes>
          <leafValues>
            -3.4618437290191650e-001 2.1089084446430206e-001</leafValues></_>
        <_>
          <internalNodes>
            0 -1 286 1611388154 1720465024 1177176183 -2049975819
            868678830 -1190983525 1855090653 1725364967</internalNodes>
          <leafValues>
            -2.7468079328536987e-001 2.5914052128791809e-001</leafValues></_>
        <_>
          <internalNodes>
            0 -1 373 145360522 991101504 -206829351 -1881322555
            947993415 -1819745864 2094410111 719081405</internalNodes>
          <leafValues>
            -4.6063286066055298e-001 1.5502113103866577e-001</leafValues></_>
        <_>
          <internalNodes>
            0 -1 120 -687663648 1250765954 -321635293 697131889
            -298231104 1321408633 1881418290 916252765</internalNodes>
          <leafValues>
            -3.8430616259574890e-001 1.6674745082855225e-001</leafValues></_>
        <_>
          <internalNodes>
            0 -1 106 -2105636350 37912590 1645453632 -1291099691
            33769216 248684689 1674633947 -1681186053</internalNodes>
          <leafValues>
            -2.8337094187736511e-001 2.3438265919685364e-001</leafValues></_>
        <_>
          <internalNodes>
            0 -1 37 -1947280325 -1635372988 -704127354 1060643185
            679625752 970539034 -2098557752 -380406209</internalNodes>
          <leafValues>
            -2.6895567774772644e-001 2.5958615541458130e-001</leafValues></_>
        <_>
          <internalNodes>
            0 -1 435 538843665 663562352 324392022 -874573571
            -1666476238 -1599758312 -773373471 -1427434860</internalNodes>
          <leafValues>
            -3.1593343615531921e-001 2.1288524568080902e-001</leafValues></_>
        <_>
          <internalNodes>
            0 -1 87 -717490692 -214090823 -1501827521 -1086374095
            -283382177 -1073762375 -1305412708 -369108036</internalNodes>
          <leafValues>
            -1.6460055112838745e-001 4.3625089526176453e-001</leafValues></_>
        <_>
          <internalNodes>
            0 -1 290 143656018 -996511094 -1069303724 -52986604
            -1953961972 -351762421 -33400581 -67446039</internalNodes>
          <leafValues>
            -3.0352729558944702e-001 2.1947290003299713e-001</leafValues></_>
        <_>
          <internalNodes>
            0 -1 134 -103391230 83984801 -1601232127 651153681
            -602786428 587857935 491127798 1163319314</internalNodes>
          <leafValues>
            -4.2532187700271606e-001 1.5578269958496094e-001</leafValues></_>
        <_>
          <internalNodes>
            0 -1 352 -191111718 1016391978 34410624 479183321 184834510
            -141918077 546591475 -827500039</internalNodes>
          <leafValues>
            -2.5014150142669678e-001 2.6822790503501892e-001</leafValues></_>
        <_>
          <internalNodes>
            0 -1 270 -1548592776 -24656747 823341913 -1879506572
            993155362 -1823899488 -1236514088 749869513</internalNodes>
          <leafValues>
            -4.5974907279014587e-001 1.4956481754779816e-001</leafValues></_>
        <_>
          <internalNodes>
            0 -1 260 44615296 1350570000 -1533137888 -1617159979
            973826598 768246028 -1148306817 1153708997</internalNodes>
          <leafValues>
            -4.2682564258575439e-001 1.5093395113945007e-001</leafValues></_>
        <_>
          <internalNodes>
            0 -1 430 -1969772751 521966684 1325711937 266245063 -2506843
            -1819297628 -360678768 -1157743240</internalNodes>
          <leafValues>
            -2.8701227903366089e-001 2.1739396452903748e-001</leafValues></_>
        <_>
          <internalNodes>
            0 -1 381 44565002 -2044327230 1715139900 -460541303
            -358411700 673354080 -301814802 -1076225795</internalNodes>
          <leafValues>
            -3.3238565921783447e-001 1.9550627470016479e-001</leafValues></_></weakClassifiers></_>
    <!-- stage 13 -->
    <_>
      <maxWeakCount>23</maxWeakCount>
      <stageThreshold>-1.8343114852905273e+000</stageThreshold>
      <weakClassifiers>
        <_>
          <internalNodes>
            0 -1 24 1573942736 -2080570984 -4111103 -8170367 -74414206
            -1967456063 1459765280 -1239264381</internalNodes>
          <leafValues>
            -7.0638942718505859e-001 -1.0408560186624527e-001</leafValues></_>
        <_>
          <internalNodes>
            0 -1 195 -2780749 -743987235 631249153 -43946553 415744161
            1974723071 -98530781 1068975491</internalNodes>
          <leafValues>
            -3.5161483287811279e-001 3.0385917425155640e-001</leafValues></_>
        <_>
          <internalNodes>
            0 -1 214 1602259744 500466739 1426790912 -1920251055
            -1231767590 -1970569214 -1166002886 146950531</internalNodes>
          <leafValues>
            -3.8733020424842834e-001 2.1937923133373260e-001</leafValues></_>
        <_>
          <internalNodes>
            0 -1 239 -676176672 726474760 -979952182 261968961 203431850
            1771094176 -1150209221 -1890510702</internalNodes>
          <leafValues>
            -3.9496117830276489e-001 2.0912769436836243e-001</leafValues></_>
        <_>
          <internalNodes>
            0 -1 338 -1398077761 -1362606646 -455097884 -1023507716
            -118489514 -134223870 -154993994 -71638063</internalNodes>
          <leafValues>
            -3.4722620248794556e-001 2.5883066654205322e-001</leafValues></_>
        <_>
          <internalNodes>
            0 -1 416 978263304 840797271 -719954668 392224521 1467304580
            -809647672 -276522476 -1445840353</internalNodes>
          <leafValues>
            -3.8040098547935486e-001 1.8293765187263489e-001</leafValues></_>
        <_>
          <internalNodes>
            0 -1 395 241443105 -1353449027 -669388584 -2204293
            2056059645 -219528901 -140252232 -1229444263</internalNodes>
          <leafValues>
            -2.4169041216373444e-001 2.8811281919479370e-001</leafValues></_>
        <_>
          <internalNodes>
            0 -1 47 2050164785 243751083 -601941631 268390736 1026560003
            -1861248917 1143087519 291734131</internalNodes>
          <leafValues>
            -3.6320570111274719e-001 1.9015248119831085e-001</leafValues></_>
        <_>
          <internalNodes>
            0 -1 117 -297493248 1541294040 486903040 420126551
            -637382621 -147432975 1117082007 1763941648</internalNodes>
          <leafValues>
            -3.9288344979286194e-001 1.7773059010505676e-001</leafValues></_>
        <_>
          <internalNodes>
            0 -1 318 -1426389942 -1366403830 -221719670 2057192832
            -100573118 -2094855679 -1144589472 -1145913992</internalNodes>
          <leafValues>
            -4.3397456407546997e-001 1.6574123501777649e-001</leafValues></_>
        <_>
          <internalNodes>
            0 -1 5 2139968091 -1377889972 1044586036 -1106554862
            1266816210 79434466 -56618992 68345974</internalNodes>
          <leafValues>
            -3.8976362347602844e-001 1.7275848984718323e-001</leafValues></_>
        <_>
          <internalNodes>
            0 -1 222 -1346759648 -1343861834 -183871021 -1342236396
            -1727873216 -1781825525 -1153330981 -1088235135</internalNodes>
          <leafValues>
            -3.6335408687591553e-001 1.8200232088565826e-001</leafValues></_>
        <_>
          <internalNodes>
            0 -1 151 1543492855 1583686638 -1516362640 -416318103
            906156729 795364948 -2100035435 332322591</internalNodes>
          <leafValues>
            -2.1272687613964081e-001 3.2133641839027405e-001</leafValues></_>
        <_>
          <internalNodes>
            0 -1 404 616563232 786075977 -187318076 -17391116 994145093
            -904835062 -740099360 -1212404800</internalNodes>
          <leafValues>
            -4.0658211708068848e-001 1.6705332696437836e-001</leafValues></_>
        <_>
          <internalNodes>
            0 -1 384 -937417696 -291860340 -166407736 -306395753
            460028784 -340409968 -174352816 -1342701196</internalNodes>
          <leafValues>
            -3.5306689143180847e-001 1.9064870476722717e-001</leafValues></_>
        <_>
          <internalNodes>
            0 -1 408 716647136 774762416 -900427534 -224788999
            -1276620064 -350510943 -71591755 -8507272</internalNodes>
          <leafValues>
            -3.0737218260765076e-001 2.2206927835941315e-001</leafValues></_>
        <_>
          <internalNodes>
            0 -1 356 -638528510 689818113 831401866 784224717 1045438768
            -234184160 47889389 248785775</internalNodes>
          <leafValues>
            -3.3224961161613464e-001 2.0935691893100739e-001</leafValues></_>
        <_>
          <internalNodes>
            0 -1 341 -1969087998 -815341774 -285458893 -1145688132
            -1887523826 -403234817 -207685953 -67125303</internalNodes>
          <leafValues>
            -2.3547008633613586e-001 3.1031191349029541e-001</leafValues></_>
        <_>
          <internalNodes>
            0 -1 383 -357960686 2082201795 1213732022 369234051
            512692209 984694825 1317501630 -542373666</internalNodes>
          <leafValues>
            -2.5953564047813416e-001 2.6101881265640259e-001</leafValues></_>
        <_>
          <internalNodes>
            0 -1 187 -1398124544 -2004184480 -431393725 -117649174
            929756152 -307967856 -606342682 -1094764360</internalNodes>
          <leafValues>
            -3.0349510908126831e-001 2.3333312571048737e-001</leafValues></_>
        <_>
          <internalNodes>
            0 -1 99 1361310254 2080328386 2130591561 -277921935
            779695802 1072668658 515061567 603659587</internalNodes>
          <leafValues>
            -2.4027428030967712e-001 2.9868486523628235e-001</leafValues></_>
        <_>
          <internalNodes>
            0 -1 279 -1127608758 -301321864 -158205291 -201096137
            -1869514172 503382019 -31786928 -71908759</internalNodes>
          <leafValues>
            -3.4906938672065735e-001 2.0621153712272644e-001</leafValues></_>
        <_>
          <internalNodes>
            0 -1 248 -789054231 1161291091 -1444448495 2113236849
            1051909327 -1347092483 1983151087 -141766729</internalNodes>
          <leafValues>
            -2.1584317088127136e-001 3.3296906948089600e-001</leafValues></_></weakClassifiers></_>
    <!-- stage 14 -->
    <_>
      <maxWeakCount>30</maxWeakCount>
      <stageThreshold>-1.9172161817550659e+000</stageThreshold>
      <weakClassifiers>
        <_>
          <internalNodes>
            0 -1 29 -658177 -705230381 -1249278602 1606539849 -435982319
            -1781183413 -951560889 2136981773</internalNodes>
          <leafValues>
            -6.4230382442474365e-001 -9.0203687548637390e-002</leafValues></_>
        <_>
          <internalNodes>
            0 -1 3 -1039801517 -1843584490 -735903414 -1653116142
            155460480 596590725 558238254 39016823</internalNodes>
          <leafValues>
            -3.4999650716781616e-001 1.9042372703552246e-001</leafValues></_>
        <_>
          <internalNodes>
            0 -1 150 -32418734 1609542510 -1526845869 863075191
            -1210067315 1049624401 920632667 -209725873</internalNodes>
          <leafValues>
            -2.3747406899929047e-001 2.7274191379547119e-001</leafValues></_>
        <_>
          <internalNodes>
            0 -1 101 1196731962 -1846083533 -52092766 -724102927
            1917231111 -1021163190 1892009407 1455671102</internalNodes>
          <leafValues>
            -3.5603451728820801e-001 1.7699566483497620e-001</leafValues></_>
        <_>
          <internalNodes>
            0 -1 399 574098721 980713277 -1143111745 -358531157 -593946
            -134873099 -17302033 -155447368</internalNodes>
          <leafValues>
            -1.9942395389080048e-001 2.9436704516410828e-001</leafValues></_>
        <_>
          <internalNodes>
            0 -1 343 -499766771 720383574 1853566715 28949375 -184802213
            939204575 -404570129 -202660930</internalNodes>
          <leafValues>
            -2.0368683338165283e-001 2.7026310563087463e-001</leafValues></_>
        <_>
          <internalNodes>
            0 -1 20 1070687296 736442178 475551520 145757009 404111473
            176888070 1448367775 167400433</internalNodes>
          <leafValues>
            -4.4781309366226196e-001 1.2532490491867065e-001</leafValues></_>
        <_>
          <internalNodes>
            0 -1 1 -72234241 -1114235937 -227453504 372922488 850004174
            1807904817 -1571408765 204603619</internalNodes>
          <leafValues>
            -2.6127448678016663e-001 2.2292724251747131e-001</leafValues></_>
        <_>
          <internalNodes>
            0 -1 389 -1505047996 922451968 -268178786 911685870
            906514436 2016487795 -1363964966 -1635437806</internalNodes>
          <leafValues>
            -2.9711371660232544e-001 1.9197651743888855e-001</leafValues></_>
        <_>
          <internalNodes>
            0 -1 328 470800106 1024091376 -1728324112 465327717
            -1167083218 965224922 -1435584106 1856830661</internalNodes>
          <leafValues>
            -2.7563726902008057e-001 1.9045765697956085e-001</leafValues></_>
        <_>
          <internalNodes>
            0 -1 218 -1640686021 -485355405 -1836557637 -663203619
            -661923828 -1671861846 -1362321219 -1083524871</internalNodes>
          <leafValues>
            -2.5205826759338379e-001 2.2040456533432007e-001</leafValues></_>
        <_>
          <internalNodes>
            0 -1 349 -1979374033 1652298892 -430123917 -1127051120
            2145112596 -830324343 -707083275 -1208782416</internalNodes>
          <leafValues>
            -3.1856334209442139e-001 1.6248659789562225e-001</leafValues></_>
        <_>
          <internalNodes>
            0 -1 18 -1016416249 469703134 1967746397 1226166675
            -704559893 2039320923 306726295 483218373</internalNodes>
          <leafValues>
            -2.3565413057804108e-001 2.3102988302707672e-001</leafValues></_>
        <_>
          <internalNodes>
            0 -1 300 -1433626816 -226315280 833291888 -213773263
            1415794481 1388487072 679889849 -1257682728</internalNodes>
          <leafValues>
            -3.4635472297668457e-001 1.5483792126178741e-001</leafValues></_>
        <_>
          <internalNodes>
            0 -1 393 -557888956 413208567 477998270 944748155 -155400044
            2063073108 -1409881346 -94397189</internalNodes>
          <leafValues>
            -1.8728214502334595e-001 3.0522400140762329e-001</leafValues></_>
        <_>
          <internalNodes>
            0 -1 169 -99968838 -756563450 -782816094 1230442567
            1443453000 2117101587 -1281666431 1202055189</internalNodes>
          <leafValues>
            -3.2121011614799500e-001 1.7232201993465424e-001</leafValues></_>
        <_>
          <internalNodes>
            0 -1 46 251724288 447105147 1485318421 378477003 862282758
            -1148272606 222535692 53677559</internalNodes>
          <leafValues>
            -4.7453653812408447e-001 1.1486428976058960e-001</leafValues></_>
        <_>
          <internalNodes>
            0 -1 253 -1744793328 694138088 -1563530496 -1982903855
            2131001976 -1131698173 2123425572 1121247302</internalNodes>
          <leafValues>
            -4.0236848592758179e-001 1.3657088577747345e-001</leafValues></_>
        <_>
          <internalNodes>
            0 -1 45 -558772491 -546340877 1871373881 -957393089
            -1413423722 -1073840257 -906863429 -540293793</internalNodes>
          <leafValues>
            -1.4556139707565308e-001 4.1773006319999695e-001</leafValues></_>
        <_>
          <internalNodes>
            0 -1 369 -1576596062 1987953053 2023349586 -295150414
            -87687177 1111067897 1758355313 -806349583</internalNodes>
          <leafValues>
            -3.0208870768547058e-001 1.9229881465435028e-001</leafValues></_>
        <_>
          <internalNodes>
            0 -1 394 -1933162534 -1710777890 -1203225378 738770640
            1149795024 279970043 -1198114119 -1402789241</internalNodes>
          <leafValues>
            -2.7247807383537292e-001 2.0478142797946930e-001</leafValues></_>
        <_>
          <internalNodes>
            0 -1 414 980149766 907114703 -799993388 973205635
            -2133558320 -1077819258 780675644 967989258</internalNodes>
          <leafValues>
            -3.0264267325401306e-001 1.7202670872211456e-001</leafValues></_>
        <_>
          <internalNodes>
            0 -1 329 654052390 1782860510 1791254254 -1426681126
            377748547 343642242 -276645380 -1594091054</internalNodes>
          <leafValues>
            -3.5247939825057983e-001 1.5814952552318573e-001</leafValues></_>
        <_>
          <internalNodes>
            0 -1 114 -570437421 -1348685 921435729 -1420599465 259241607
            268156671 -1623306341 -726009909</internalNodes>
          <leafValues>
            -1.4869162440299988e-001 3.9346796274185181e-001</leafValues></_>
        <_>
          <internalNodes>
            0 -1 212 719521826 1141526906 -1706274591 1352765612
            -1156948470 -993893081 -1286948416 -542070547</internalNodes>
          <leafValues>
            -3.4916445612907410e-001 1.5916697680950165e-001</leafValues></_>
        <_>
          <internalNodes>
            0 -1 50 -285743377 -693962705 -59773452 -1809582305
            1048330006 -1895872675 260109772 -1453091717</internalNodes>
          <leafValues>
            -2.0061382651329041e-001 2.9815980792045593e-001</leafValues></_>
        <_>
          <internalNodes>
            0 -1 323 -2100665329 -456638072 709520891 -118754840
            -1348380144 -89126686 1539306470 -138431735</internalNodes>
          <leafValues>
            -2.6563575863838196e-001 2.0112359523773193e-001</leafValues></_>
        <_>
          <internalNodes>
            0 -1 158 -342315739 113165106 -1499921262 253142835
            1317625429 35340291 -185957713 90661556</internalNodes>
          <leafValues>
            -3.5467612743377686e-001 1.5573354065418243e-001</leafValues></_>
        <_>
          <internalNodes>
            0 -1 202 1653637586 -246959318 592439413 524515397
            2140836999 -1224274559 -1273193065 260392263</internalNodes>
          <leafValues>
            -2.9411637783050537e-001 1.9366702437400818e-001</leafValues></_>
        <_>
          <internalNodes>
            0 -1 439 -1005250364 351020844 720203382 -1335148566
            -1393176648 75380702 -1812349704 -1342214228</internalNodes>
          <leafValues>
            -2.1178117394447327e-001 2.6257309317588806e-001</leafValues></_></weakClassifiers></_>
    <!-- stage 15 -->
    <_>
      <maxWeakCount>18</maxWeakCount>
      <stageThreshold>-1.9706286191940308e+000</stageThreshold>
      <weakClassifiers>
        <_>
          <internalNodes>
            0 -1 154 -553264809 -640841069 -536243108 -1714896697
            -3392878 -120745595 -1466680929 -270688619</internalNodes>
          <leafValues>
            -6.4913004636764526e-001 1.3336248695850372e-001</leafValues></_>
        <_>
          <internalNodes>
            0 -1 164 1923405406 2082832386 -1740299984 -1817882155
            -1372337535 1752457287 -1534285730 -326258368</internalNodes>
          <leafValues>
            -3.8251951336860657e-001 3.0404418706893921e-001</leafValues></_>
        <_>
          <internalNodes>
            0 -1 86 -1153754106 1303224678 206581264 574686642 42745856
            698233092 -1564402415 1140015362</internalNodes>
          <leafValues>
            -5.1952368021011353e-001 1.9066292047500610e-001</leafValues></_>
        <_>
          <internalNodes>
            0 -1 72 363185440 152269536 608207120 676470854 432181248
            260050436 440404440 447206358</internalNodes>
          <leafValues>
            -4.6124923229217529e-001 1.8732744455337524e-001</leafValues></_>
        <_>
          <internalNodes>
            0 -1 128 3145954 1797293234 637804607 -1597680167
            -1155050848 -1349379510 -2096770435 369425286</internalNodes>
          <leafValues>
            -4.4351229071617126e-001 2.1719439327716827e-001</leafValues></_>
        <_>
          <internalNodes>
            0 -1 103 -512351946 577033521 244919092 -1564085568
            1342324738 57314374 302155842 1097260822</internalNodes>
          <leafValues>
            -4.7664612531661987e-001 1.7489649355411530e-001</leafValues></_>
        <_>
          <internalNodes>
            0 -1 149 788463747 489764858 2009071601 -93749534
            -2030465284 -17465486 -52232243 -1086593857</internalNodes>
          <leafValues>
            -2.4420544505119324e-001 3.3295693993568420e-001</leafValues></_>
        <_>
          <internalNodes>
            0 -1 13 -549388816 718454885 -778970064 735416610 299041282
            118139064 1385328960 1082190706</internalNodes>
          <leafValues>
            -5.1071524620056152e-001 1.7487037181854248e-001</leafValues></_>
        <_>
          <internalNodes>
            0 -1 309 1257232896 -32866097 -804331485 1220677847 13550108
            1913528848 -357539290 713057861</internalNodes>
          <leafValues>
            -4.1643872857093811e-001 1.9626611471176147e-001</leafValues></_>
        <_>
          <internalNodes>
            0 -1 291 -1575694310 1577091216 450104455 -570140261
            991005342 -1171718005 -1173578930 1995755375</internalNodes>
          <leafValues>
            -2.8925627470016479e-001 2.8654804825782776e-001</leafValues></_>
        <_>
          <internalNodes>
